booster[0]:
0:[l2<52.8271027] yes=1,no=2,missing=1
	1:[l1<10.4941998] yes=3,no=4,missing=3
		3:[l2<44.2979507] yes=7,no=8,missing=7
			7:[l1<7.71850014] yes=15,no=16,missing=15
				15:[l2<38.3915024] yes=31,no=32,missing=31
					31:[l1<5.17799997] yes=63,no=64,missing=63
						63:leaf=1.42857146
						64:[l4<0.407000005] yes=117,no=118,missing=117
							117:leaf=-1.69230771
							118:[l2<36.9650002] yes=201,no=202,missing=201
								201:[l1<6.11025] yes=309,no=310,missing=309
									309:leaf=-0
									310:leaf=-1.4666667
								202:leaf=1
					32:[l1<7.13665009] yes=65,no=66,missing=65
						65:[l6<-0.948949993] yes=119,no=120,missing=119
							119:leaf=-0.222222224
							120:[l4<1.52390003] yes=203,no=204,missing=203
								203:[l4<-0.493499994] yes=311,no=312,missing=311
									311:leaf=0.5
									312:leaf=1.82905984
								204:leaf=0.5
						66:[l2<41.618] yes=121,no=122,missing=121
							121:[l12<6.46125031] yes=205,no=206,missing=205
								205:[l8<0.145199999] yes=313,no=314,missing=313
									313:leaf=0.5
									314:[l4<-0.267100006] yes=435,no=436,missing=435
										435:leaf=-0
										436:leaf=-1.25
								206:leaf=1.11111116
							122:[l8<0.131399989] yes=207,no=208,missing=207
								207:leaf=-0
								208:[l2<43.0263519] yes=315,no=316,missing=315
									315:leaf=1.61904764
									316:[l0<3292.5] yes=437,no=438,missing=437
										437:leaf=-0.222222224
										438:leaf=1.11111116
				16:[l2<42.0583992] yes=33,no=34,missing=33
					33:[l10<0.805599988] yes=67,no=68,missing=67
						67:leaf=-0.181818187
						68:[l5<1.11520004] yes=123,no=124,missing=123
							123:[l6<1.05649996] yes=209,no=210,missing=209
								209:leaf=-1.93469393
								210:leaf=-0.545454562
							124:leaf=-0.222222224
					34:[l1<8.4320507] yes=69,no=70,missing=69
						69:[l5<-0.85860002] yes=125,no=126,missing=125
							125:leaf=-1
							126:[l0<4024.5] yes=211,no=212,missing=211
								211:[l11<-0.355350018] yes=317,no=318,missing=317
									317:leaf=1.61904764
									318:[l3<0.181250006] yes=439,no=440,missing=439
										439:leaf=-0.800000012
										440:leaf=0.666666687
								212:leaf=-0.400000006
						70:[l5<1.06190002] yes=127,no=128,missing=127
							127:[l6<1.14174998] yes=213,no=214,missing=213
								213:[l8<0.92385] yes=319,no=320,missing=319
									319:[l1<9.18484974] yes=441,no=442,missing=441
										441:leaf=-0.800000012
										442:leaf=-1.64444447
									320:[l5<0.174999997] yes=443,no=444,missing=443
										443:leaf=-0.5
										444:leaf=0.5
								214:leaf=0.666666687
							128:leaf=0.800000012
			8:[l1<9.27664948] yes=17,no=18,missing=17
				17:[l6<-1.00865006] yes=35,no=36,missing=35
					35:leaf=0.181818187
					36:[l9<0.760349989] yes=71,no=72,missing=71
						71:leaf=-0
						72:[l11<1.22285008] yes=129,no=130,missing=129
							129:[l5<-0.961750031] yes=215,no=216,missing=215
								215:[l12<4.65625] yes=321,no=322,missing=321
									321:leaf=1.20000005
									322:leaf=-0.5
								216:[l13<8.5] yes=323,no=324,missing=323
									323:[l7<0.00380000006] yes=445,no=446,missing=445
										445:leaf=0.5
										446:leaf=1.82417583
									324:[l7<0.111149997] yes=447,no=448,missing=447
										447:leaf=-0.400000006
										448:leaf=1.4482758
							130:[l0<2057.5] yes=217,no=218,missing=217
								217:leaf=-0.5
								218:leaf=1.11111116
				18:[l2<47.4824982] yes=37,no=38,missing=37
					37:[l11<0.386900008] yes=73,no=74,missing=73
						73:[l2<45.868] yes=131,no=132,missing=131
							131:[l8<0.878749967] yes=219,no=220,missing=219
								219:[l14<12.5] yes=325,no=326,missing=325
									325:[l1<9.55290031] yes=449,no=450,missing=449
										449:leaf=0.222222224
										450:leaf=-1.47826087
									326:leaf=0.181818187
								220:[l3<0.871649981] yes=327,no=328,missing=327
									327:leaf=-0.222222224
									328:leaf=1.11111116
							132:[l1<10.1950998] yes=221,no=222,missing=221
								221:[l0<524] yes=329,no=330,missing=329
									329:leaf=-0.800000012
									330:[l13<7.5] yes=451,no=452,missing=451
										451:leaf=1.20000005
										452:leaf=-0.25
								222:[l7<0.551050007] yes=331,no=332,missing=331
									331:[l14<10.5] yes=453,no=454,missing=453
										453:leaf=-1.11111116
										454:leaf=-0
									332:leaf=1
						74:[l3<0.979049981] yes=133,no=134,missing=133
							133:leaf=-1.7241379
							134:leaf=-0
					38:[l2<49.4633484] yes=75,no=76,missing=75
						75:[l11<0.297600001] yes=135,no=136,missing=135
							135:[l12<5.85270023] yes=223,no=224,missing=223
								223:[l0<500.5] yes=333,no=334,missing=333
									333:[l1<9.67140007] yes=455,no=456,missing=455
										455:leaf=1
										456:leaf=-0.400000006
									334:[l1<9.39309978] yes=457,no=458,missing=457
										457:leaf=0.222222224
										458:leaf=1.53246748
								224:[l10<1.08724999] yes=335,no=336,missing=335
									335:[l3<-0.155099988] yes=459,no=460,missing=459
										459:leaf=-0.909090936
										460:leaf=0.363636374
									336:leaf=1.33333337
							136:[l2<48.4261017] yes=225,no=226,missing=225
								225:[l10<0.871250033] yes=337,no=338,missing=337
									337:leaf=-0
									338:leaf=-1.20000005
								226:[l0<2084] yes=339,no=340,missing=339
									339:leaf=1
									340:leaf=-0
						76:[l8<0.0201000012] yes=137,no=138,missing=137
							137:leaf=-0.5
							138:[l3<-2.15210009] yes=227,no=228,missing=227
								227:leaf=-0
								228:[l4<-0.4023] yes=341,no=342,missing=341
									341:leaf=-0
									342:[l9<0.878350019] yes=461,no=462,missing=461
										461:leaf=0.769230783
										462:leaf=1.80851066
		4:[l1<11.6026497] yes=9,no=10,missing=9
			9:[l2<47.6979523] yes=19,no=20,missing=19
				19:[l4<1.90900004] yes=39,no=40,missing=39
					39:[l8<0.953949988] yes=77,no=78,missing=77
						77:[l10<0.768949986] yes=139,no=140,missing=139
							139:leaf=-0
							140:[l2<45.6598511] yes=229,no=230,missing=229
								229:[l14<5.5] yes=343,no=344,missing=343
									343:[l2<43.9135513] yes=463,no=464,missing=463
										463:leaf=-1.11111116
										464:leaf=-0
									344:leaf=-1.95256913
								230:[l9<1.20225] yes=345,no=346,missing=345
									345:[l2<47.1935501] yes=465,no=466,missing=465
										465:leaf=0.400000006
										466:leaf=-1
									346:[l11<1.22074997] yes=467,no=468,missing=467
										467:leaf=-1.60000002
										468:leaf=-0
						78:leaf=-0
					40:leaf=-0
				20:[l2<50.566452] yes=41,no=42,missing=41
					41:[l1<10.8859501] yes=79,no=80,missing=79
						79:[l6<-0.82949996] yes=141,no=142,missing=141
							141:[l12<1.56564999] yes=231,no=232,missing=231
								231:leaf=0.222222224
								232:leaf=-1.20000005
							142:[l16<2.5] yes=233,no=234,missing=233
								233:[l12<-0.776950002] yes=347,no=348,missing=347
									347:[l4<0.546350002] yes=469,no=470,missing=469
										469:leaf=0.5
										470:leaf=-1
									348:[l11<-1.03925002] yes=471,no=472,missing=471
										471:leaf=1.58620691
										472:leaf=0.56410259
								234:leaf=-0.666666687
						80:[l3<-0.468349993] yes=143,no=144,missing=143
							143:[l14<8.5] yes=235,no=236,missing=235
								235:leaf=1.33333337
								236:[l15<1.5] yes=349,no=350,missing=349
									349:[l0<1819] yes=473,no=474,missing=473
										473:leaf=-0
										474:leaf=-1.4666667
									350:[l8<0.599599957] yes=475,no=476,missing=475
										475:leaf=1.14285719
										476:leaf=-0.333333343
							144:[l10<0.881649971] yes=237,no=238,missing=237
								237:[l15<2.5] yes=351,no=352,missing=351
									351:leaf=-0.400000006
									352:leaf=1.11111116
								238:[l5<0.935500026] yes=353,no=354,missing=353
									353:[l6<0.896149993] yes=477,no=478,missing=477
										477:leaf=-1.35483873
										478:leaf=-0.285714298
									354:[l13<7.5] yes=479,no=480,missing=479
										479:leaf=1.11111116
										480:leaf=-0.5
					42:[l0<190.5] yes=81,no=82,missing=81
						81:[l8<0.412400007] yes=145,no=146,missing=145
							145:leaf=-1
							146:leaf=0.5
						82:[l1<11.13445] yes=147,no=148,missing=147
							147:[l1<10.5461006] yes=239,no=240,missing=239
								239:leaf=0.222222224
								240:[l7<0.11485] yes=355,no=356,missing=355
									355:[l11<-2.00465012] yes=481,no=482,missing=481
										481:leaf=1.42857146
										482:leaf=-0.5
									356:[l14<4.5] yes=483,no=484,missing=483
										483:leaf=0.5
										484:leaf=1.80327868
							148:[l4<0.676999986] yes=241,no=242,missing=241
								241:[l6<-0.880800009] yes=357,no=358,missing=357
									357:leaf=-0.222222224
									358:[l1<11.1757002] yes=485,no=486,missing=485
										485:leaf=0.222222224
										486:leaf=1.63636363
								242:[l7<0.552749991] yes=359,no=360,missing=359
									359:[l0<1393] yes=487,no=488,missing=487
										487:leaf=0.666666687
										488:leaf=-0.947368443
									360:[l1<11.4191494] yes=489,no=490,missing=489
										489:leaf=1.20000005
										490:leaf=-0
			10:[l2<50.607151] yes=21,no=22,missing=21
				21:[l14<4.5] yes=43,no=44,missing=43
					43:[l0<1685.5] yes=83,no=84,missing=83
						83:leaf=0.400000006
						84:leaf=-1
					44:[l10<0.792299986] yes=85,no=86,missing=85
						85:[l7<0.281899989] yes=149,no=150,missing=149
							149:[l1<12.7422504] yes=243,no=244,missing=243
								243:leaf=0.800000012
								244:leaf=-1
							150:leaf=-1.57894742
						86:[l10<1.20934999] yes=151,no=152,missing=151
							151:[l6<1.1723001] yes=245,no=246,missing=245
								245:[l11<-5.19264984] yes=361,no=362,missing=361
									361:leaf=-0.5
									362:[l13<1.5] yes=491,no=492,missing=491
										491:leaf=-0.857142866
										492:leaf=-1.90989232
								246:leaf=-0.5
							152:[l5<0.537699997] yes=247,no=248,missing=247
								247:leaf=-1.52941179
								248:[l8<0.693750024] yes=363,no=364,missing=363
									363:leaf=0.400000006
									364:leaf=-1
				22:[l1<13.2180004] yes=45,no=46,missing=45
					45:[l5<0.511999965] yes=87,no=88,missing=87
						87:[l10<0.793349981] yes=153,no=154,missing=153
							153:[l1<12.3776999] yes=249,no=250,missing=249
								249:leaf=1.11111116
								250:leaf=-0
							154:[l3<-1.54824996] yes=251,no=252,missing=251
								251:leaf=0.800000012
								252:[l6<1.04229999] yes=365,no=366,missing=365
									365:[l14<14.5] yes=493,no=494,missing=493
										493:leaf=-1.37313437
										494:leaf=0.5
									366:[l1<11.9671497] yes=495,no=496,missing=495
										495:leaf=1
										496:leaf=-0.5
						88:[l10<1.00609994] yes=155,no=156,missing=155
							155:[l6<-0.410950005] yes=253,no=254,missing=253
								253:[l10<0.972900033] yes=367,no=368,missing=367
									367:leaf=1
									368:leaf=-1
								254:[l12<0.592499971] yes=369,no=370,missing=369
									369:leaf=0.222222224
									370:[l1<12.1122494] yes=497,no=498,missing=497
										497:leaf=-0.545454562
										498:leaf=-1.61904764
							156:[l8<0.384649992] yes=255,no=256,missing=255
								255:[l9<6.48374987] yes=371,no=372,missing=371
									371:[l13<6] yes=499,no=500,missing=499
										499:leaf=1.20000005
										500:leaf=-0.5
									372:[l7<0.184399992] yes=501,no=502,missing=501
										501:leaf=-0
										502:leaf=-1.33333337
								256:[l5<1.06869996] yes=373,no=374,missing=373
									373:[l12<5.02285004] yes=503,no=504,missing=503
										503:leaf=1.5
										504:leaf=0.181818187
									374:leaf=-0.181818187
					46:[l3<1.75310004] yes=89,no=90,missing=89
						89:[l10<1.26714993] yes=157,no=158,missing=157
							157:[l4<-0.482500017] yes=257,no=258,missing=257
								257:leaf=-0.400000006
								258:[l10<0.772050023] yes=375,no=376,missing=375
									375:leaf=-0.5
									376:leaf=-1.92682922
							158:leaf=-0.222222224
						90:[l6<-0.128100008] yes=159,no=160,missing=159
							159:leaf=1
							160:leaf=-1.38461542
	2:[l1<13.2353992] yes=5,no=6,missing=5
		5:[l1<12.11485] yes=11,no=12,missing=11
			11:[l6<-0.930599988] yes=23,no=24,missing=23
				23:[l5<-0.22240001] yes=47,no=48,missing=47
					47:leaf=-1
					48:[l2<54.3760986] yes=91,no=92,missing=91
						91:leaf=-0
						92:leaf=1.25
				24:[l7<1.81019998] yes=49,no=50,missing=49
					49:[l4<-0.554650009] yes=93,no=94,missing=93
						93:leaf=0.545454562
						94:leaf=1.8551532
					50:leaf=0.400000006
			12:[l2<55.1106491] yes=25,no=26,missing=25
				25:[l11<-1.19264996] yes=51,no=52,missing=51
					51:[l7<0.0540999994] yes=95,no=96,missing=95
						95:[l4<0.321500003] yes=161,no=162,missing=161
							161:[l10<1.04229999] yes=259,no=260,missing=259
								259:[l1<12.9631996] yes=377,no=378,missing=377
									377:leaf=-1.38461542
									378:leaf=-0
								260:leaf=0.545454562
							162:[l0<2738.5] yes=261,no=262,missing=261
								261:leaf=1.27272725
								262:leaf=-0
						96:[l6<-0.879750013] yes=163,no=164,missing=163
							163:leaf=-0
							164:[l5<0.949900031] yes=263,no=264,missing=263
								263:leaf=1.7647059
								264:leaf=0.5
					52:[l0<761.5] yes=97,no=98,missing=97
						97:[l2<54.2984505] yes=165,no=166,missing=165
							165:[l6<-0.307000011] yes=265,no=266,missing=265
								265:leaf=1
								266:leaf=-0.545454562
							166:leaf=1.4666667
						98:[l5<1.06904995] yes=167,no=168,missing=167
							167:[l10<0.901550055] yes=267,no=268,missing=267
								267:[l5<-0.0963999927] yes=379,no=380,missing=379
									379:leaf=1.25
									380:[l5<0.370950013] yes=505,no=506,missing=505
										505:leaf=-1.20000005
										506:leaf=-0
								268:[l6<0.190400004] yes=381,no=382,missing=381
									381:[l13<2.5] yes=507,no=508,missing=507
										507:leaf=-0
										508:leaf=-1.60975611
									382:[l7<0.286799997] yes=509,no=510,missing=509
										509:leaf=-0.947368443
										510:leaf=0.270270258
							168:leaf=1.11111116
				26:[l5<-1.01565003] yes=53,no=54,missing=53
					53:leaf=-0.666666687
					54:[l6<-0.939800024] yes=99,no=100,missing=99
						99:[l2<56.2980499] yes=169,no=170,missing=169
							169:leaf=-0.800000012
							170:[l12<-0.0640000105] yes=269,no=270,missing=269
								269:leaf=-0
								270:leaf=1.38461542
						100:[l8<0.0126499999] yes=171,no=172,missing=171
							171:leaf=0.545454562
							172:[l5<-0.918949962] yes=271,no=272,missing=271
								271:[l0<2261.5] yes=383,no=384,missing=383
									383:leaf=1.33333337
									384:[l9<5.06709957] yes=511,no=512,missing=511
										511:leaf=-0.666666687
										512:leaf=1.11111116
								272:[l4<-0.531100035] yes=385,no=386,missing=385
									385:leaf=0.5
									386:[l7<0.00799999945] yes=513,no=514,missing=513
										513:leaf=0.5
										514:leaf=1.77906978
		6:[l2<58.0539474] yes=13,no=14,missing=13
			13:[l1<14.4001503] yes=27,no=28,missing=27
				27:[l2<54.7686996] yes=55,no=56,missing=55
					55:[l5<1.00975001] yes=101,no=102,missing=101
						101:[l10<0.821699977] yes=173,no=174,missing=173
							173:[l1<13.7144003] yes=273,no=274,missing=273
								273:leaf=1.11111116
								274:leaf=-0
							174:[l14<14.5] yes=275,no=276,missing=275
								275:[l6<1.12314999] yes=387,no=388,missing=387
									387:[l4<1.36089993] yes=515,no=516,missing=515
										515:leaf=-1.4728682
										516:leaf=-0
									388:leaf=0.5
								276:leaf=1.11111116
						102:[l3<0.760750055] yes=175,no=176,missing=175
							175:leaf=1.11111116
							176:leaf=-0
					56:[l6<-0.90684998] yes=103,no=104,missing=103
						103:[l1<13.6306496] yes=177,no=178,missing=177
							177:leaf=-0
							178:leaf=-1.61904764
						104:[l5<-0.931249976] yes=179,no=180,missing=179
							179:[l6<0.0494999997] yes=277,no=278,missing=277
								277:leaf=-1.42857146
								278:[l14<8.5] yes=389,no=390,missing=389
									389:leaf=1
									390:[l8<0.402099997] yes=517,no=518,missing=517
										517:leaf=0.222222224
										518:leaf=-1.11111116
							180:[l8<0.120099999] yes=279,no=280,missing=279
								279:[l0<458] yes=391,no=392,missing=391
									391:leaf=1
									392:[l4<0.289200008] yes=519,no=520,missing=519
										519:leaf=0.285714298
										520:leaf=-1.39999998
								280:[l13<4.5] yes=393,no=394,missing=393
									393:[l11<0.0340999998] yes=521,no=522,missing=521
										521:leaf=1.47058821
										522:leaf=0.560000002
									394:[l1<14.1670504] yes=523,no=524,missing=523
										523:leaf=0.740740716
										524:leaf=-0.580645144
				28:[l1<15.4584999] yes=57,no=58,missing=57
					57:[l2<55.9309998] yes=105,no=106,missing=105
						105:[l10<0.872500002] yes=181,no=182,missing=181
							181:[l10<0.8653] yes=281,no=282,missing=281
								281:[l12<0.0804999992] yes=395,no=396,missing=395
									395:leaf=-0.222222224
									396:leaf=-1.4666667
								282:leaf=0.666666687
							182:[l5<1.06255007] yes=283,no=284,missing=283
								283:[l6<1.06675005] yes=397,no=398,missing=397
									397:[l8<0.95449996] yes=525,no=526,missing=525
										525:leaf=-1.942029
										526:leaf=-0.5
									398:leaf=-0.545454562
								284:leaf=-0
						106:[l3<1.35540009] yes=183,no=184,missing=183
							183:[l3<-0.784950018] yes=285,no=286,missing=285
								285:[l13<7.5] yes=399,no=400,missing=399
									399:[l8<0.851050019] yes=527,no=528,missing=527
										527:leaf=0.800000012
										528:leaf=-0.400000006
									400:leaf=-1
								286:[l7<0.0451999977] yes=401,no=402,missing=401
									401:[l2<57.3764] yes=529,no=530,missing=529
										529:leaf=-0.222222224
										530:leaf=1
									402:[l10<0.900600016] yes=531,no=532,missing=531
										531:leaf=-0.352941185
										532:leaf=-1.41818178
							184:leaf=1
					58:[l0<44] yes=107,no=108,missing=107
						107:leaf=-0.5
						108:[l7<0.00815000013] yes=185,no=186,missing=185
							185:leaf=-0.5
							186:[l10<0.79369998] yes=287,no=288,missing=287
								287:leaf=-0.5
								288:[l12<122.794952] yes=403,no=404,missing=403
									403:leaf=-1.94095945
									404:leaf=-0.5
			14:[l1<16.1209488] yes=29,no=30,missing=29
				29:[l2<60.9727478] yes=59,no=60,missing=59
					59:[l1<14.6802998] yes=109,no=110,missing=109
						109:[l7<1.45350003] yes=187,no=188,missing=187
							187:[l13<9.5] yes=289,no=290,missing=289
								289:[l7<0.0111500006] yes=405,no=406,missing=405
									405:leaf=0.181818187
									406:[l12<25.4214993] yes=533,no=534,missing=533
										533:leaf=1.57990873
										534:leaf=0.400000006
								290:[l2<59.4140015] yes=407,no=408,missing=407
									407:leaf=0.5
									408:leaf=-0.666666687
							188:leaf=-0.400000006
						110:[l10<1.10590005] yes=189,no=190,missing=189
							189:[l10<0.967299998] yes=291,no=292,missing=291
								291:[l6<-0.387499988] yes=409,no=410,missing=409
									409:[l2<58.5681534] yes=535,no=536,missing=535
										535:leaf=0.181818187
										536:leaf=1.58620691
									410:[l5<-0.369750023] yes=537,no=538,missing=537
										537:leaf=0.727272749
										538:leaf=-1.05882359
								292:[l14<9.5] yes=411,no=412,missing=411
									411:[l13<4.5] yes=539,no=540,missing=539
										539:leaf=0.888888896
										540:leaf=-0.5
									412:[l6<0.848399997] yes=541,no=542,missing=541
										541:leaf=-1.51999998
										542:leaf=-0
							190:[l6<0.266849995] yes=293,no=294,missing=293
								293:leaf=-0
								294:[l1<15.5783501] yes=413,no=414,missing=413
									413:leaf=1.66666663
									414:leaf=0.545454562
					60:[l9<11.9229507] yes=111,no=112,missing=111
						111:[l6<-0.998049974] yes=191,no=192,missing=191
							191:leaf=0.5
							192:[l8<0.00870000012] yes=295,no=296,missing=295
								295:leaf=0.5
								296:[l12<-1.82920003] yes=415,no=416,missing=415
									415:leaf=0.5
									416:leaf=1.82201409
						112:[l6<-0.158299997] yes=193,no=194,missing=193
							193:leaf=-0.222222224
							194:leaf=1.20000005
				30:[l2<63.9091492] yes=61,no=62,missing=61
					61:[l2<60.5493469] yes=113,no=114,missing=113
						113:[l10<0.877799988] yes=195,no=196,missing=195
							195:[l2<59.725502] yes=297,no=298,missing=297
								297:[l3<0.915099978] yes=417,no=418,missing=417
									417:leaf=-1.20000005
									418:leaf=-0
								298:leaf=0.5
							196:[l7<1.2198] yes=299,no=300,missing=299
								299:leaf=-1.86813188
								300:[l0<3830] yes=419,no=420,missing=419
									419:leaf=-1.11111116
									420:leaf=-0
						114:[l1<17.2765007] yes=197,no=198,missing=197
							197:[l16<0.5] yes=301,no=302,missing=301
								301:[l2<63.0843506] yes=421,no=422,missing=421
									421:[l7<0.324450016] yes=543,no=544,missing=543
										543:leaf=-1
										544:leaf=0.400000006
									422:leaf=1.27272725
								302:[l1<16.2668991] yes=423,no=424,missing=423
									423:leaf=-0.222222224
									424:[l9<8.12734985] yes=545,no=546,missing=545
										545:leaf=1.25
										546:leaf=-0
							198:[l6<1.00329995] yes=303,no=304,missing=303
								303:[l14<12.5] yes=425,no=426,missing=425
									425:[l0<507.5] yes=547,no=548,missing=547
										547:leaf=-0.5
										548:leaf=-1.81395352
									426:leaf=-0.400000006
								304:leaf=0.5
					62:[l7<2.03040004] yes=115,no=116,missing=115
						115:[l2<67.1318054] yes=199,no=200,missing=199
							199:[l1<18.5021] yes=305,no=306,missing=305
								305:[l4<-0.321550012] yes=427,no=428,missing=427
									427:leaf=-0
									428:[l5<-0.966650009] yes=549,no=550,missing=549
										549:leaf=-0
										550:leaf=1.62068963
								306:[l14<7.5] yes=429,no=430,missing=429
									429:leaf=1.11111116
									430:leaf=-1.36842108
							200:[l12<14.3218498] yes=307,no=308,missing=307
								307:[l6<1.1293] yes=431,no=432,missing=431
									431:[l6<-0.964450002] yes=551,no=552,missing=551
										551:leaf=0.5
										552:leaf=1.91608393
									432:leaf=0.5
								308:[l6<0.69325] yes=433,no=434,missing=433
									433:leaf=1.27272725
									434:leaf=-0.5
						116:leaf=-0.5
booster[1]:
0:[l2<53.9460983] yes=1,no=2,missing=1
	1:[l1<12.1404495] yes=3,no=4,missing=3
		3:[l2<48.4867477] yes=7,no=8,missing=7
			7:[l1<8.3217001] yes=15,no=16,missing=15
				15:[l2<39.5834007] yes=31,no=32,missing=31
					31:[l1<6.33399963] yes=57,no=58,missing=57
						57:[l11<-0.207350001] yes=103,no=104,missing=103
							103:[l1<5.61969995] yes=173,no=174,missing=173
								173:leaf=0.986576438
								174:leaf=0.221307546
							104:[l15<1.5] yes=175,no=176,missing=175
								175:leaf=0.300171316
								176:leaf=-0.780997574
						58:[l3<1.18639994] yes=105,no=106,missing=105
							105:leaf=-1.13971233
							106:leaf=0.496394634
					32:[l11<-0.898599982] yes=59,no=60,missing=59
						59:[l0<4049.5] yes=107,no=108,missing=107
							107:[l4<-0.323850006] yes=177,no=178,missing=177
								177:leaf=-0.0507193506
								178:[l2<47.6393509] yes=265,no=266,missing=265
									265:[l12<6.30539989] yes=363,no=364,missing=363
										363:leaf=1.34026015
										364:leaf=0.633888602
									266:leaf=0.120578259
							108:[l11<-1.98479998] yes=179,no=180,missing=179
								179:leaf=0.802034438
								180:[l11<-1.68569994] yes=267,no=268,missing=267
									267:leaf=-0.748695374
									268:[l4<0.506150007] yes=365,no=366,missing=365
										365:leaf=0.421913862
										366:leaf=-0.0116256531
						60:[l1<7.56384993] yes=109,no=110,missing=109
							109:[l4<0.822700024] yes=181,no=182,missing=181
								181:[l9<1.02690005] yes=269,no=270,missing=269
									269:leaf=-0.168741152
									270:[l0<3575.5] yes=367,no=368,missing=367
										367:leaf=1.17876911
										368:leaf=0.448996037
								182:[l13<6.5] yes=271,no=272,missing=271
									271:[l10<1.00125003] yes=369,no=370,missing=369
										369:leaf=0.177508861
										370:leaf=0.659363866
									272:leaf=-0.63108933
							110:[l5<-0.805050015] yes=183,no=184,missing=183
								183:[l5<-0.914649963] yes=273,no=274,missing=273
									273:leaf=-0.18827188
									274:leaf=-1.31394279
								184:[l7<0.426299989] yes=275,no=276,missing=275
									275:[l14<9.5] yes=371,no=372,missing=371
										371:leaf=-1.31756389
										372:leaf=-0.0248743277
									276:[l6<0.804250002] yes=373,no=374,missing=373
										373:leaf=0.977539062
										374:leaf=-0.247986197
				16:[l2<43.4434509] yes=33,no=34,missing=33
					33:[l1<8.44174957] yes=61,no=62,missing=61
						61:leaf=-0.00989626069
						62:[l6<1.1342001] yes=111,no=112,missing=111
							111:[l11<-2.86240005] yes=185,no=186,missing=185
								185:[l7<0.0253999997] yes=277,no=278,missing=277
									277:leaf=-0.80814749
									278:leaf=0.168417811
								186:[l0<4891.5] yes=279,no=280,missing=279
									279:leaf=-1.11646461
									280:leaf=-0.34390372
							112:leaf=0.11603383
					34:[l1<9.75105] yes=63,no=64,missing=63
						63:[l4<0.394549996] yes=113,no=114,missing=113
							113:[l12<-1.04499996] yes=187,no=188,missing=187
								187:leaf=-0.826943576
								188:[l6<-0.957999945] yes=281,no=282,missing=281
									281:[l0<2469.5] yes=375,no=376,missing=375
										375:leaf=0.165510014
										376:leaf=-0.892041147
									282:[l9<0.755650043] yes=377,no=378,missing=377
										377:leaf=-0.0827754438
										378:leaf=1.14038777
							114:[l4<0.880699992] yes=189,no=190,missing=189
								189:[l10<1.04489994] yes=283,no=284,missing=283
									283:[l3<-1.42474997] yes=379,no=380,missing=379
										379:leaf=0.447407752
										380:leaf=-1.40081203
									284:[l12<13.9289999] yes=381,no=382,missing=381
										381:leaf=0.645368338
										382:leaf=-0.493524909
								190:[l1<8.65359974] yes=285,no=286,missing=285
									285:leaf=-0.769660413
									286:[l14<9.5] yes=383,no=384,missing=383
										383:leaf=0.0823889226
										384:leaf=0.97983259
						64:[l10<0.82130003] yes=115,no=116,missing=115
							115:[l6<0.285350025] yes=191,no=192,missing=191
								191:[l5<-0.1065] yes=287,no=288,missing=287
									287:leaf=1.33256459
									288:leaf=-0.12639761
								192:leaf=-0.773465872
							116:[l1<11.4790497] yes=193,no=194,missing=193
								193:[l2<46.2742004] yes=289,no=290,missing=289
									289:[l13<4.5] yes=385,no=386,missing=385
										385:leaf=-0.0649861619
										386:leaf=-0.955387831
									290:[l4<0.527750015] yes=387,no=388,missing=387
										387:leaf=0.10583967
										388:leaf=-0.603893101
								194:[l5<1.11144996] yes=291,no=292,missing=291
									291:[l3<-1.45679998] yes=389,no=390,missing=389
										389:leaf=-0.00928750914
										390:leaf=-1.1307534
									292:leaf=0.194989368
			8:[l1<9.87335014] yes=17,no=18,missing=17
				17:[l7<1.99130011] yes=35,no=36,missing=35
					35:[l5<-0.961750031] yes=65,no=66,missing=65
						65:leaf=0.098403044
						66:[l4<-0.136900008] yes=117,no=118,missing=117
							117:[l12<2.06134987] yes=195,no=196,missing=195
								195:leaf=0.938016415
								196:leaf=-0.437793791
							118:leaf=1.17388558
					36:leaf=-0.107393153
				18:[l14<6.5] yes=37,no=38,missing=37
					37:[l12<3.88929987] yes=67,no=68,missing=67
						67:[l8<0.189899996] yes=119,no=120,missing=119
							119:leaf=0.466088742
							120:[l2<50.9456482] yes=197,no=198,missing=197
								197:leaf=1.70675778
								198:[l12<-0.720200002] yes=293,no=294,missing=293
									293:leaf=0.176921427
									294:leaf=0.945177317
						68:[l13<5.5] yes=121,no=122,missing=121
							121:leaf=0.872664988
							122:leaf=-0.296526939
					38:[l10<0.869500041] yes=69,no=70,missing=69
						69:[l5<0.519400001] yes=123,no=124,missing=123
							123:[l6<0.261999995] yes=199,no=200,missing=199
								199:[l0<4609.5] yes=295,no=296,missing=295
									295:[l1<11.8881998] yes=391,no=392,missing=391
										391:leaf=1.30980194
										392:leaf=0.289955735
									296:leaf=0.287866086
								200:[l14<10.5] yes=297,no=298,missing=297
									297:leaf=-0.0790697113
									298:leaf=0.421678066
							124:leaf=-0.129056737
						70:[l14<13.5] yes=125,no=126,missing=125
							125:[l13<6.5] yes=201,no=202,missing=201
								201:[l5<0.0787499994] yes=299,no=300,missing=299
									299:[l11<-1.11339998] yes=393,no=394,missing=393
										393:leaf=0.475229025
										394:leaf=-0.413125336
									300:[l4<-0.296800017] yes=395,no=396,missing=395
										395:leaf=-0.829183519
										396:leaf=0.638282835
								202:[l12<5.77340031] yes=301,no=302,missing=301
									301:[l0<3052] yes=397,no=398,missing=397
										397:leaf=-0.502394974
										398:leaf=0.358775705
									302:[l9<5.81045008] yes=399,no=400,missing=399
										399:leaf=-1.59783018
										400:leaf=-0.188079104
							126:[l1<11.7618999] yes=203,no=204,missing=203
								203:[l10<0.949699998] yes=303,no=304,missing=303
									303:[l1<10.8390999] yes=401,no=402,missing=401
										401:leaf=0.76753819
										402:leaf=-0.159907088
									304:[l9<7.75584984] yes=403,no=404,missing=403
										403:leaf=1.51305032
										404:leaf=0.420117497
								204:[l9<4.87024975] yes=305,no=306,missing=305
									305:leaf=0.834139585
									306:leaf=-0.704560161
		4:[l2<51.1322021] yes=9,no=10,missing=9
			9:[l4<1.64654994] yes=19,no=20,missing=19
				19:[l12<17.0795002] yes=39,no=40,missing=39
					39:[l14<12.5] yes=71,no=72,missing=71
						71:[l4<1.44819999] yes=127,no=128,missing=127
							127:leaf=-1.14236414
							128:leaf=-0.322337866
						72:[l10<0.886999965] yes=129,no=130,missing=129
							129:leaf=0.230083257
							130:[l2<50.6687012] yes=205,no=206,missing=205
								205:leaf=-1.04095554
								206:leaf=-0.242481634
					40:[l3<-0.932199955] yes=73,no=74,missing=73
						73:leaf=0.596532285
						74:[l0<1002.5] yes=131,no=132,missing=131
							131:leaf=-0.220347822
							132:leaf=-1.03497136
				20:leaf=0.113547072
			10:[l1<13.9192505] yes=21,no=22,missing=21
				21:[l13<6.5] yes=41,no=42,missing=41
					41:[l11<0.160400003] yes=75,no=76,missing=75
						75:[l7<0.373349994] yes=133,no=134,missing=133
							133:[l15<2.5] yes=207,no=208,missing=207
								207:[l11<-0.696699977] yes=307,no=308,missing=307
									307:[l14<10.5] yes=405,no=406,missing=405
										405:leaf=0.896786749
										406:leaf=-0.162999973
									308:[l1<13.0195999] yes=407,no=408,missing=407
										407:leaf=-0.126488626
										408:leaf=-0.853839874
								208:[l1<12.4962997] yes=309,no=310,missing=309
									309:leaf=0.249291211
									310:leaf=-1.0519377
							134:[l2<53.0232506] yes=209,no=210,missing=209
								209:[l10<0.999350011] yes=311,no=312,missing=311
									311:[l7<0.466949999] yes=409,no=410,missing=409
										409:leaf=1.44460487
										410:leaf=0.147801906
									312:leaf=-0.263890326
								210:leaf=1.59408367
						76:[l2<53.5733032] yes=135,no=136,missing=135
							135:[l9<6.2045002] yes=211,no=212,missing=211
								211:leaf=-1.24624491
								212:[l2<51.9819984] yes=313,no=314,missing=313
									313:leaf=-0.73344475
									314:leaf=0.893954694
							136:leaf=0.598599315
					42:[l6<0.879000008] yes=77,no=78,missing=77
						77:[l9<9.60980034] yes=137,no=138,missing=137
							137:[l11<-2.73255014] yes=213,no=214,missing=213
								213:leaf=0.25121662
								214:[l9<1.42040002] yes=315,no=316,missing=315
									315:leaf=0.292985618
									316:[l14<6.5] yes=411,no=412,missing=411
										411:leaf=-0.22702536
										412:leaf=-1.18572438
							138:leaf=0.243980557
						78:[l2<52.7124023] yes=139,no=140,missing=139
							139:leaf=1.09136021
							140:leaf=-0.159726992
				22:[l12<48.1996994] yes=43,no=44,missing=43
					43:[l4<1.53734994] yes=79,no=80,missing=79
						79:[l8<0.938000023] yes=141,no=142,missing=141
							141:[l14<14.5] yes=215,no=216,missing=215
								215:[l4<-0.450100005] yes=317,no=318,missing=317
									317:leaf=-0.307179451
									318:leaf=-1.13706946
								216:leaf=-0.371864855
							142:leaf=-0.241847351
						80:leaf=-0.0825147852
					44:leaf=-0.0067410497
	2:[l1<12.8009501] yes=5,no=6,missing=5
		5:[l13<8.5] yes=11,no=12,missing=11
			11:[l11<1.27394998] yes=23,no=24,missing=23
				23:[l12<29.2459488] yes=45,no=46,missing=45
					45:[l10<1.09494996] yes=81,no=82,missing=81
						81:[l12<-1.10505009] yes=143,no=144,missing=143
							143:[l6<-0.335900009] yes=217,no=218,missing=217
								217:leaf=-0.791628838
								218:leaf=0.764884233
							144:[l9<10.4928493] yes=219,no=220,missing=219
								219:[l10<1.08914995] yes=319,no=320,missing=319
									319:[l9<1.11759996] yes=413,no=414,missing=413
										413:leaf=0.244456694
										414:leaf=0.930960655
									320:leaf=-0.111365147
								220:leaf=-0.0366374403
						82:[l0<85.5] yes=145,no=146,missing=145
							145:leaf=0.297431201
							146:leaf=1.16863132
					46:[l13<6.5] yes=83,no=84,missing=83
						83:leaf=0.65699923
						84:leaf=-0.591006577
				24:leaf=-0.426409125
			12:[l8<0.192049995] yes=25,no=26,missing=25
				25:leaf=-1.28575087
				26:[l1<12.5513496] yes=47,no=48,missing=47
					47:[l6<-0.618700027] yes=85,no=86,missing=85
						85:leaf=0.115171328
						86:leaf=0.8676759
					48:leaf=-0.206903428
		6:[l2<59.1984024] yes=13,no=14,missing=13
			13:[l1<14.7515001] yes=27,no=28,missing=27
				27:[l3<-1.10905004] yes=49,no=50,missing=49
					49:[l11<-0.827749968] yes=87,no=88,missing=87
						87:[l8<0.412699997] yes=147,no=148,missing=147
							147:[l8<0.238849998] yes=221,no=222,missing=221
								221:[l6<-0.495100021] yes=321,no=322,missing=321
									321:leaf=-0.327346653
									322:leaf=0.728983283
								222:leaf=-1.05181456
							148:[l10<1.13249993] yes=223,no=224,missing=223
								223:leaf=0.93675077
								224:leaf=-0.0647120103
						88:[l1<14.3445492] yes=149,no=150,missing=149
							149:[l4<0.960049987] yes=225,no=226,missing=225
								225:[l11<0.835049987] yes=323,no=324,missing=323
									323:[l9<8.05615044] yes=415,no=416,missing=415
										415:leaf=1.59512603
										416:leaf=0.396732599
									324:leaf=0.284946084
								226:leaf=0.154048577
							150:leaf=-0.15260835
					50:[l3<0.824200034] yes=89,no=90,missing=89
						89:[l10<0.788249969] yes=151,no=152,missing=151
							151:[l5<-0.0481000021] yes=227,no=228,missing=227
								227:leaf=1.27960813
								228:leaf=0.051221583
							152:[l14<5.5] yes=229,no=230,missing=229
								229:[l2<55.5310974] yes=325,no=326,missing=325
									325:leaf=0.0620949976
									326:leaf=1.14377928
								230:[l14<12.5] yes=327,no=328,missing=327
									327:[l6<1.1451] yes=417,no=418,missing=417
										417:leaf=-0.729662418
										418:leaf=1.21408439
									328:[l8<0.855399966] yes=419,no=420,missing=419
										419:leaf=0.426983982
										420:leaf=-0.897554994
						90:[l11<0.303200006] yes=153,no=154,missing=153
							153:[l4<0.644150019] yes=231,no=232,missing=231
								231:[l12<-1.17650008] yes=329,no=330,missing=329
									329:leaf=-0.310259908
									330:[l0<587.5] yes=421,no=422,missing=421
										421:leaf=-0.0791505948
										422:leaf=1.30005562
								232:[l4<1.18650007] yes=331,no=332,missing=331
									331:[l0<2084] yes=423,no=424,missing=423
										423:leaf=-0.953977764
										424:leaf=0.370989114
									332:leaf=0.813602805
							154:[l13<4.5] yes=233,no=234,missing=233
								233:leaf=0.720268071
								234:[l2<56.8988991] yes=333,no=334,missing=333
									333:leaf=-1.54747915
									334:leaf=0.0870529115
				28:[l5<1.02754998] yes=51,no=52,missing=51
					51:[l2<57.3168488] yes=91,no=92,missing=91
						91:[l9<1.78734994] yes=155,no=156,missing=155
							155:[l2<56.4728012] yes=235,no=236,missing=235
								235:leaf=0.575844526
								236:leaf=-0.81096065
							156:[l10<0.794499993] yes=237,no=238,missing=237
								237:leaf=0.00821790472
								238:[l14<13.5] yes=335,no=336,missing=335
									335:[l6<-1.00174999] yes=425,no=426,missing=425
										425:leaf=-0.283345073
										426:leaf=-1.20519233
									336:[l4<0.543099999] yes=427,no=428,missing=427
										427:leaf=0.15430674
										428:leaf=-0.609165549
						92:[l1<16.0216484] yes=157,no=158,missing=157
							157:[l1<14.8524494] yes=239,no=240,missing=239
								239:leaf=-1.10810578
								240:[l3<1.25320005] yes=337,no=338,missing=337
									337:[l3<-0.858649969] yes=429,no=430,missing=429
										429:leaf=0.660825789
										430:leaf=-0.515334845
									338:leaf=1.19531751
							158:[l7<0.0942000002] yes=241,no=242,missing=241
								241:leaf=-0.239122942
								242:[l2<58.9577484] yes=339,no=340,missing=339
									339:leaf=-1.11821246
									340:leaf=-0.211689383
					52:[l1<15.4006996] yes=93,no=94,missing=93
						93:leaf=1.00468361
						94:leaf=-0.252558857
			14:[l1<15.4920502] yes=29,no=30,missing=29
				29:[l6<-0.743399978] yes=53,no=54,missing=53
					53:[l13<5.5] yes=95,no=96,missing=95
						95:[l9<4.62199974] yes=159,no=160,missing=159
							159:leaf=1.03811812
							160:[l16<1] yes=243,no=244,missing=243
								243:leaf=-0.323291481
								244:leaf=0.71167469
						96:[l9<3.93149996] yes=161,no=162,missing=161
							161:[l8<0.713050008] yes=245,no=246,missing=245
								245:leaf=-2.02579498
								246:leaf=-0.302393019
							162:[l9<6.35379982] yes=247,no=248,missing=247
								247:leaf=0.765342236
								248:leaf=-0.285342127
					54:[l7<0.00595000014] yes=97,no=98,missing=97
						97:leaf=-0.562089086
						98:[l4<-0.504649997] yes=163,no=164,missing=163
							163:leaf=-0.236038581
							164:[l0<4699.5] yes=249,no=250,missing=249
								249:[l13<10.5] yes=341,no=342,missing=341
									341:[l9<0.646600008] yes=431,no=432,missing=431
										431:leaf=0.291229278
										432:leaf=1.07062495
									342:leaf=0.159239009
								250:[l3<-0.181800008] yes=343,no=344,missing=343
									343:leaf=-0.569871664
									344:leaf=0.699347377
				30:[l2<63.7730484] yes=55,no=56,missing=55
					55:[l10<1.04115009] yes=99,no=100,missing=99
						99:[l6<-0.0450000018] yes=165,no=166,missing=165
							165:[l10<0.881700039] yes=251,no=252,missing=251
								251:[l1<15.6644497] yes=345,no=346,missing=345
									345:leaf=-0.936888993
									346:[l1<17.2359009] yes=433,no=434,missing=433
										433:leaf=1.18549848
										434:leaf=-0.172826499
								252:[l9<10.5112495] yes=347,no=348,missing=347
									347:[l1<15.6478004] yes=435,no=436,missing=435
										435:leaf=0.336360276
										436:leaf=-0.89134258
									348:leaf=1.03034902
							166:[l2<63.2125473] yes=253,no=254,missing=253
								253:[l3<-0.261550009] yes=349,no=350,missing=349
									349:[l1<16.5816002] yes=437,no=438,missing=437
										437:leaf=0.305217206
										438:leaf=-0.747861564
									350:leaf=-1.56766403
								254:leaf=0.453046083
						100:[l14<8.5] yes=167,no=168,missing=167
							167:[l10<1.06099999] yes=255,no=256,missing=255
								255:leaf=0.110577241
								256:[l4<0.281800002] yes=351,no=352,missing=351
									351:leaf=0.341858596
									352:leaf=1.69939399
							168:[l14<9.5] yes=257,no=258,missing=257
								257:leaf=-0.972853899
								258:[l5<0.367700011] yes=353,no=354,missing=353
									353:[l1<16.432251] yes=439,no=440,missing=439
										439:leaf=0.295576394
										440:leaf=-0.837744653
									354:[l5<1.03644991] yes=441,no=442,missing=441
										441:leaf=0.978864551
										442:leaf=-0.111681908
					56:[l12<0.431850016] yes=101,no=102,missing=101
						101:[l12<0.262650013] yes=169,no=170,missing=169
							169:[l12<-0.989700019] yes=259,no=260,missing=259
								259:[l15<1.5] yes=355,no=356,missing=355
									355:leaf=0.578716695
									356:leaf=-0.734612286
								260:[l6<-0.8398] yes=357,no=358,missing=357
									357:leaf=-0.24837704
									358:[l15<2.5] yes=443,no=444,missing=443
										443:leaf=1.02034354
										444:leaf=0.282313973
							170:leaf=-1.23584473
						102:[l9<6.5906496] yes=171,no=172,missing=171
							171:[l1<20.5564003] yes=261,no=262,missing=261
								261:[l5<-0.881749988] yes=359,no=360,missing=359
									359:leaf=0.207154304
									360:leaf=1.14622748
								262:leaf=0.147716552
							172:[l7<0.912750006] yes=263,no=264,missing=263
								263:[l8<0.524450004] yes=361,no=362,missing=361
									361:[l8<0.0870999992] yes=445,no=446,missing=445
										445:leaf=0.192753494
										446:leaf=1.10434294
									362:[l8<0.638249993] yes=447,no=448,missing=447
										447:leaf=-0.722373605
										448:leaf=0.693822384
								264:leaf=-0.347539544
booster[2]:
0:[l13<5.5] yes=1,no=2,missing=1
	1:[l3<0.498349994] yes=3,no=4,missing=3
		3:[l14<6.5] yes=7,no=8,missing=7
			7:[l11<0.418500006] yes=15,no=16,missing=15
				15:[l4<-0.212700009] yes=31,no=32,missing=31
					31:leaf=-0.233798325
					32:[l9<1.09969997] yes=63,no=64,missing=63
						63:leaf=0.0301971901
						64:[l11<-0.379500002] yes=97,no=98,missing=97
							97:[l5<-0.688150048] yes=141,no=142,missing=141
								141:leaf=0.458668381
								142:[l13<2.5] yes=203,no=204,missing=203
									203:[l8<0.396200001] yes=279,no=280,missing=279
										279:leaf=0.630476773
										280:leaf=0.105763376
									204:[l9<2.57070017] yes=281,no=282,missing=281
										281:leaf=0.310540318
										282:leaf=1.3660475
							98:[l4<0.501049995] yes=143,no=144,missing=143
								143:leaf=1.00003684
								144:[l7<0.612949967] yes=205,no=206,missing=205
									205:leaf=-0.571504295
									206:leaf=0.681126356
				16:[l9<4.50250006] yes=33,no=34,missing=33
					33:leaf=-0.651144624
					34:leaf=0.416714221
			8:[l10<1.17089999] yes=17,no=18,missing=17
				17:[l2<55.4917526] yes=35,no=36,missing=35
					35:[l1<11.6695995] yes=65,no=66,missing=65
						65:[l14<12.5] yes=99,no=100,missing=99
							99:[l1<9.02219963] yes=145,no=146,missing=145
								145:[l2<41.6028519] yes=207,no=208,missing=207
									207:[l1<6.29435015] yes=283,no=284,missing=283
										283:leaf=0.422681004
										284:leaf=-0.686938703
									208:[l5<-0.955299973] yes=285,no=286,missing=285
										285:leaf=-0.234336242
										286:leaf=0.689400554
								146:[l2<48.2916031] yes=209,no=210,missing=209
									209:[l4<1.40705001] yes=287,no=288,missing=287
										287:leaf=-0.84670037
										288:leaf=0.537624061
									210:[l10<0.915600002] yes=289,no=290,missing=289
										289:leaf=0.695628285
										290:leaf=-0.201515391
							100:[l2<46.5816498] yes=147,no=148,missing=147
								147:[l5<-0.117699996] yes=211,no=212,missing=211
									211:[l7<0.353349984] yes=291,no=292,missing=291
										291:leaf=-0.214147627
										292:leaf=0.993183434
									212:[l8<0.628300011] yes=293,no=294,missing=293
										293:leaf=-0.0233260393
										294:leaf=-0.859852433
								148:[l12<-0.66655004] yes=213,no=214,missing=213
									213:leaf=-0.0409682877
									214:[l12<12.1021004] yes=295,no=296,missing=295
										295:leaf=1.12781429
										296:leaf=0.0420468822
						66:[l14<15.5] yes=101,no=102,missing=101
							101:[l9<11.9849491] yes=149,no=150,missing=149
								149:[l10<0.718500018] yes=215,no=216,missing=215
									215:leaf=0.634608984
									216:[l8<0.328799993] yes=297,no=298,missing=297
										297:leaf=-0.344520122
										298:leaf=-0.838552058
								150:leaf=0.753772318
							102:leaf=0.896059036
					36:[l1<14.0710506] yes=67,no=68,missing=67
						67:[l8<0.674000025] yes=103,no=104,missing=103
							103:[l8<0.647300005] yes=151,no=152,missing=151
								151:[l5<-0.776000023] yes=217,no=218,missing=217
									217:[l1<13.46735] yes=299,no=300,missing=299
										299:leaf=-1.01386368
										300:leaf=0.734626055
									218:[l2<55.9462509] yes=301,no=302,missing=301
										301:leaf=-0.234879032
										302:leaf=0.698200107
								152:leaf=-0.757568598
							104:[l5<0.35710001] yes=153,no=154,missing=153
								153:leaf=1.13504279
								154:[l0<1442.5] yes=219,no=220,missing=219
									219:leaf=-0.132238179
									220:leaf=0.704888701
						68:[l3<-0.617349982] yes=105,no=106,missing=105
							105:[l11<-0.0134500004] yes=155,no=156,missing=155
								155:[l12<-0.715049982] yes=221,no=222,missing=221
									221:leaf=-0.404910028
									222:[l4<0.88985002] yes=303,no=304,missing=303
										303:leaf=0.822970986
										304:leaf=-0.120137088
								156:[l5<0.559050024] yes=223,no=224,missing=223
									223:[l6<0.686699986] yes=305,no=306,missing=305
										305:leaf=0.746150494
										306:leaf=-0.747690618
									224:leaf=-1.12351692
							106:[l8<0.167850003] yes=157,no=158,missing=157
								157:[l5<0.385800004] yes=225,no=226,missing=225
									225:leaf=1.02027619
									226:leaf=-0.43911773
								158:[l2<60.5745506] yes=227,no=228,missing=227
									227:[l4<1.11185002] yes=307,no=308,missing=307
										307:leaf=-0.948520303
										308:leaf=0.1807632
									228:[l1<16.8333015] yes=309,no=310,missing=309
										309:leaf=0.328222573
										310:leaf=-0.488516092
				18:[l6<0.0388999991] yes=37,no=38,missing=37
					37:[l5<0.658100009] yes=69,no=70,missing=69
						69:leaf=-0.923381329
						70:[l5<1.16989994] yes=107,no=108,missing=107
							107:leaf=0.685881019
							108:leaf=-0.271869957
					38:[l3<-0.360350013] yes=71,no=72,missing=71
						71:[l1<16.0200005] yes=109,no=110,missing=109
							109:leaf=1.19291437
							110:leaf=0.219031721
						72:[l2<50.6127014] yes=111,no=112,missing=111
							111:[l10<1.21599996] yes=159,no=160,missing=159
								159:leaf=0.0773662329
								160:leaf=-1.03358459
							112:[l7<0.468649983] yes=161,no=162,missing=161
								161:leaf=1.09804332
								162:leaf=0.126733914
		4:[l6<-0.932350039] yes=9,no=10,missing=9
			9:[l7<0.205650002] yes=19,no=20,missing=19
				19:[l12<2.36490011] yes=39,no=40,missing=39
					39:leaf=0.837709844
					40:leaf=-0.407361507
				20:[l5<0.157499999] yes=41,no=42,missing=41
					41:leaf=-0.966238141
					42:leaf=-0.165904626
			10:[l1<10.4071503] yes=21,no=22,missing=21
				21:[l2<42.048851] yes=43,no=44,missing=43
					43:[l1<7.87160015] yes=73,no=74,missing=73
						73:[l9<5.85185003] yes=113,no=114,missing=113
							113:leaf=0.739952147
							114:leaf=-0.147215798
						74:leaf=-0.809085965
					44:[l14<8.5] yes=75,no=76,missing=75
						75:[l4<0.429750025] yes=115,no=116,missing=115
							115:leaf=0.882609844
							116:[l4<0.734600008] yes=163,no=164,missing=163
								163:[l11<-0.854900002] yes=229,no=230,missing=229
									229:leaf=0.18938148
									230:leaf=-0.977888107
								164:leaf=0.731700957
						76:[l7<0.0220500007] yes=117,no=118,missing=117
							117:leaf=0.170391396
							118:[l16<2.5] yes=165,no=166,missing=165
								165:[l4<1.08045006] yes=231,no=232,missing=231
									231:[l1<8.51045036] yes=311,no=312,missing=311
										311:leaf=0.663115203
										312:leaf=1.35060585
									232:[l8<0.449550003] yes=313,no=314,missing=313
										313:leaf=-0.0441334173
										314:leaf=0.629760146
								166:leaf=0.292865962
				22:[l2<56.2847519] yes=45,no=46,missing=45
					45:[l1<13.8241005] yes=77,no=78,missing=77
						77:[l8<0.0168999992] yes=119,no=120,missing=119
							119:leaf=-1.0310744
							120:[l15<2.5] yes=167,no=168,missing=167
								167:[l2<49.6318016] yes=233,no=234,missing=233
									233:[l8<0.172800004] yes=315,no=316,missing=315
										315:leaf=-0.673927546
										316:leaf=0.284560472
									234:[l12<3.3906002] yes=317,no=318,missing=317
										317:leaf=0.993610322
										318:leaf=0.140637696
								168:[l13<2.5] yes=235,no=236,missing=235
									235:[l0<1074.5] yes=319,no=320,missing=319
										319:leaf=-0.344258934
										320:leaf=1.05847991
									236:[l1<12.5948] yes=321,no=322,missing=321
										321:leaf=-0.0377358757
										322:leaf=-0.869037867
						78:[l4<1.2701] yes=121,no=122,missing=121
							121:[l3<1.69089997] yes=169,no=170,missing=169
								169:leaf=-1.0359658
								170:leaf=-0.103185162
							122:leaf=0.406367987
					46:[l13<4.5] yes=79,no=80,missing=79
						79:[l12<9.31215] yes=123,no=124,missing=123
							123:[l8<0.895249963] yes=171,no=172,missing=171
								171:[l8<0.0306000002] yes=237,no=238,missing=237
									237:leaf=0.173406199
									238:[l1<16.8395996] yes=323,no=324,missing=323
										323:leaf=1.14195645
										324:leaf=0.504953504
								172:[l16<1.5] yes=239,no=240,missing=239
									239:leaf=1.0482775
									240:leaf=-0.423686564
							124:[l1<13.8402996] yes=173,no=174,missing=173
								173:leaf=0.63549006
								174:[l7<0.187000006] yes=241,no=242,missing=241
									241:leaf=0.238947257
									242:leaf=-0.778836548
						80:[l1<14.9548998] yes=125,no=126,missing=125
							125:[l4<0.302749991] yes=175,no=176,missing=175
								175:[l4<-0.01425] yes=243,no=244,missing=243
									243:leaf=0.742493033
									244:leaf=-0.633766532
								176:leaf=1.0905807
							126:[l1<15.6674004] yes=177,no=178,missing=177
								177:leaf=-1.31887698
								178:[l5<0.358049989] yes=245,no=246,missing=245
									245:[l3<1.16689992] yes=325,no=326,missing=325
										325:leaf=-0.156830251
										326:leaf=0.663935244
									246:leaf=-0.572358727
	2:[l10<0.864500046] yes=5,no=6,missing=5
		5:[l5<0.495100021] yes=11,no=12,missing=11
			11:[l6<0.432249993] yes=23,no=24,missing=23
				23:[l7<1.42869997] yes=47,no=48,missing=47
					47:[l1<17.3772011] yes=81,no=82,missing=81
						81:[l2<51.4347992] yes=127,no=128,missing=127
							127:[l12<14.3344498] yes=179,no=180,missing=179
								179:[l1<10.8717499] yes=247,no=248,missing=247
									247:[l3<1.68540001] yes=327,no=328,missing=327
										327:leaf=1.0790627
										328:leaf=0.2053781
									248:[l11<-0.328850001] yes=329,no=330,missing=329
										329:leaf=0.681587815
										330:leaf=-0.747120202
								180:leaf=-0.489537597
							128:[l9<2.7902] yes=181,no=182,missing=181
								181:[l10<0.830649972] yes=249,no=250,missing=249
									249:[l1<13.8467503] yes=331,no=332,missing=331
										331:leaf=0.405741215
										332:leaf=-0.246651977
									250:leaf=0.848943889
								182:[l1<16.09095] yes=251,no=252,missing=251
									251:leaf=1.31516337
									252:leaf=0.462842137
						82:leaf=-0.236447901
					48:leaf=-0.610819519
				24:[l1<11.2507992] yes=49,no=50,missing=49
					49:leaf=0.191745758
					50:[l5<-0.485100001] yes=83,no=84,missing=83
						83:leaf=-0.267929614
						84:leaf=-1.07957637
			12:[l4<0.241950005] yes=25,no=26,missing=25
				25:[l7<0.328000009] yes=51,no=52,missing=51
					51:leaf=-0.560449541
					52:leaf=0.405711591
				26:[l7<0.0903500021] yes=53,no=54,missing=53
					53:leaf=0.129036561
					54:leaf=-1.2702837
		6:[l6<1.07879996] yes=13,no=14,missing=13
			13:[l5<0.920300007] yes=27,no=28,missing=27
				27:[l4<1.81955004] yes=55,no=56,missing=55
					55:[l14<14.5] yes=85,no=86,missing=85
						85:[l2<46.8867493] yes=129,no=130,missing=129
							129:[l3<-1.24755001] yes=183,no=184,missing=183
								183:[l2<43.7827988] yes=253,no=254,missing=253
									253:leaf=-0.78080821
									254:[l1<10.8511] yes=333,no=334,missing=333
										333:leaf=0.78188026
										334:leaf=-0.703487992
								184:[l1<7.67815018] yes=255,no=256,missing=255
									255:[l3<0.209350005] yes=335,no=336,missing=335
										335:leaf=-0.814215183
										336:leaf=0.586088955
									256:[l11<-3.20459986] yes=337,no=338,missing=337
										337:leaf=-0.293535501
										338:leaf=-1.13287902
							130:[l1<10.86485] yes=185,no=186,missing=185
								185:[l2<52.1584511] yes=257,no=258,missing=257
									257:[l3<-1.54904997] yes=339,no=340,missing=339
										339:leaf=1.01432729
										340:leaf=-0.146895424
									258:[l9<6.40600014] yes=341,no=342,missing=341
										341:leaf=1.0425123
										342:leaf=0.103029877
								186:[l2<65.246048] yes=259,no=260,missing=259
									259:[l7<0.0555000007] yes=343,no=344,missing=343
										343:leaf=0.0413975231
										344:leaf=-0.589874685
									260:[l6<1.00750005] yes=345,no=346,missing=345
										345:leaf=0.809098661
										346:leaf=-0.658999503
						86:[l9<4.39900017] yes=131,no=132,missing=131
							131:[l3<-0.464650005] yes=187,no=188,missing=187
								187:[l6<0.288800001] yes=261,no=262,missing=261
									261:leaf=0.687253773
									262:leaf=0.0938168615
								188:[l12<0.643249989] yes=263,no=264,missing=263
									263:leaf=0.12541604
									264:[l1<13.4536495] yes=347,no=348,missing=347
										347:leaf=-0.315728366
										348:leaf=-1.17606235
							132:[l15<2.5] yes=189,no=190,missing=189
								189:[l15<0.5] yes=265,no=266,missing=265
									265:leaf=0.267962039
									266:leaf=1.20617044
								190:[l9<6.76714993] yes=267,no=268,missing=267
									267:leaf=0.433054984
									268:leaf=-0.141613051
					56:leaf=1.04029715
				28:[l6<0.284150004] yes=57,no=58,missing=57
					57:[l0<2903] yes=87,no=88,missing=87
						87:[l5<0.962900043] yes=133,no=134,missing=133
							133:[l2<53.8758011] yes=191,no=192,missing=191
								191:leaf=-0.921470046
								192:leaf=0.242446467
							134:[l9<6.7881999] yes=193,no=194,missing=193
								193:[l11<-0.938750029] yes=269,no=270,missing=269
									269:[l11<-2.60400009] yes=349,no=350,missing=349
										349:leaf=0.13169004
										350:leaf=1.07895279
									270:[l11<-0.744599998] yes=351,no=352,missing=351
										351:leaf=-0.411089927
										352:leaf=0.465118349
								194:[l2<55.167099] yes=271,no=272,missing=271
									271:leaf=-0.633107603
									272:leaf=0.33859849
						88:[l12<0.344599992] yes=135,no=136,missing=135
							135:[l8<0.583299994] yes=195,no=196,missing=195
								195:leaf=-1.6361953
								196:leaf=0.109780371
							136:[l1<9.8803997] yes=197,no=198,missing=197
								197:[l7<0.288599998] yes=273,no=274,missing=273
									273:leaf=0.844980478
									274:leaf=-0.191160306
								198:[l16<0.5] yes=275,no=276,missing=275
									275:[l3<-1.00170004] yes=353,no=354,missing=353
										353:leaf=0.237441137
										354:leaf=-1.19692647
									276:[l2<49.9103508] yes=355,no=356,missing=355
										355:leaf=-0.738807142
										356:leaf=0.471710235
					58:[l5<1.16070008] yes=89,no=90,missing=89
						89:[l5<0.9903] yes=137,no=138,missing=137
							137:[l4<0.0694500059] yes=199,no=200,missing=199
								199:leaf=-0.407164603
								200:[l0<1137.5] yes=277,no=278,missing=277
									277:leaf=-0.234923556
									278:[l2<46.4709473] yes=357,no=358,missing=357
										357:leaf=0.06669043
										358:leaf=0.947818279
							138:[l12<0.132200003] yes=201,no=202,missing=201
								201:leaf=0.184861064
								202:leaf=1.13438869
						90:leaf=-0.411662102
			14:[l5<-0.1285] yes=29,no=30,missing=29
				29:[l11<-0.523299992] yes=59,no=60,missing=59
					59:[l0<1971] yes=91,no=92,missing=91
						91:leaf=0.676999509
						92:leaf=0.0409572795
					60:[l4<0.552250028] yes=93,no=94,missing=93
						93:leaf=-0.103385605
						94:leaf=-1.0742023
				30:[l2<47.052597] yes=61,no=62,missing=61
					61:leaf=0.0052616531
					62:[l9<7.0699501] yes=95,no=96,missing=95
						95:leaf=1.36349595
						96:[l1<14.4399996] yes=139,no=140,missing=139
							139:leaf=0.520440996
							140:leaf=-0.203065023
booster[3]:
0:[l2<51.382103] yes=1,no=2,missing=1
	1:[l1<12.7861004] yes=3,no=4,missing=3
		3:[l11<-0.270900011] yes=7,no=8,missing=7
			7:[l5<-0.960999966] yes=15,no=16,missing=15
				15:[l4<0.180449992] yes=31,no=32,missing=31
					31:[l1<9.93805027] yes=49,no=50,missing=49
						49:leaf=0.550140381
						50:leaf=-0.466624022
					32:leaf=-1.11853993
				16:[l2<49.4630508] yes=33,no=34,missing=33
					33:[l1<10.4545498] yes=51,no=52,missing=51
						51:[l2<42.2046013] yes=79,no=80,missing=79
							79:[l1<8.4545002] yes=117,no=118,missing=117
								117:[l1<5.95320034] yes=167,no=168,missing=167
									167:leaf=0.727716804
									168:[l16<0.5] yes=215,no=216,missing=215
										215:leaf=-0.454836786
										216:leaf=0.39170742
								118:leaf=-0.894242465
							80:[l13<6.5] yes=119,no=120,missing=119
								119:[l6<-0.993749976] yes=169,no=170,missing=169
									169:leaf=-0.511411667
									170:[l10<0.923349977] yes=217,no=218,missing=217
										217:leaf=0.143658504
										218:leaf=0.694120049
								120:[l10<0.95389998] yes=171,no=172,missing=171
									171:[l15<0.5] yes=219,no=220,missing=219
										219:leaf=0.228497818
										220:leaf=-0.864640415
									172:[l15<0.5] yes=221,no=222,missing=221
										221:leaf=-0.461316377
										222:leaf=0.527439892
						52:[l2<44.389801] yes=81,no=82,missing=81
							81:leaf=-0.964192569
							82:[l7<0.477299988] yes=121,no=122,missing=121
								121:[l1<11.3575497] yes=173,no=174,missing=173
									173:[l4<-0.0895000026] yes=223,no=224,missing=223
										223:leaf=-0.785870254
										224:leaf=0.399458408
									174:[l10<0.822999954] yes=225,no=226,missing=225
										225:leaf=0.556280017
										226:leaf=-0.6804021
								122:leaf=1.02500868
					34:[l6<0.712849975] yes=53,no=54,missing=53
						53:[l0<944.5] yes=83,no=84,missing=83
							83:[l2<50.153801] yes=123,no=124,missing=123
								123:leaf=-1.03246272
								124:[l12<2.51230001] yes=175,no=176,missing=175
									175:leaf=0.107505947
									176:leaf=0.785993814
							84:[l8<0.0468499996] yes=125,no=126,missing=125
								125:leaf=-0.125131905
								126:[l12<-0.99514997] yes=177,no=178,missing=177
									177:leaf=-0.103037342
									178:[l2<49.764801] yes=227,no=228,missing=227
										227:leaf=0.163049713
										228:leaf=1.33881247
						54:[l14<10.5] yes=85,no=86,missing=85
							85:[l9<2.35619998] yes=127,no=128,missing=127
								127:leaf=-0.495823056
								128:leaf=0.980147362
							86:[l3<-0.37470001] yes=129,no=130,missing=129
								129:leaf=0.228822604
								130:[l3<0.504999995] yes=179,no=180,missing=179
									179:leaf=-1.35395789
									180:leaf=-0.23577702
			8:[l7<0.405200005] yes=17,no=18,missing=17
				17:[l0<4108.5] yes=35,no=36,missing=35
					35:[l10<0.949349999] yes=55,no=56,missing=55
						55:leaf=-0.161617041
						56:leaf=-1.13865268
					36:leaf=-0.055297561
				18:[l1<11.4506493] yes=37,no=38,missing=37
					37:[l14<7.5] yes=57,no=58,missing=57
						57:[l7<0.769250035] yes=87,no=88,missing=87
							87:[l8<0.133249998] yes=131,no=132,missing=131
								131:leaf=-0.129170671
								132:leaf=1.06469393
							88:[l6<-0.470300019] yes=133,no=134,missing=133
								133:[l2<48.0191994] yes=181,no=182,missing=181
									181:leaf=-0.0204524696
									182:leaf=-1.09294641
								134:[l2<46.5384521] yes=183,no=184,missing=183
									183:[l12<1.83205009] yes=229,no=230,missing=229
										229:leaf=-0.686698377
										230:leaf=0.167678401
									184:leaf=0.900117338
						58:[l4<-0.0669500008] yes=89,no=90,missing=89
							89:[l12<2.56815004] yes=135,no=136,missing=135
								135:[l4<-0.280749977] yes=185,no=186,missing=185
									185:leaf=-0.104998171
									186:leaf=-1.41884983
								136:[l8<0.421000004] yes=187,no=188,missing=187
									187:leaf=-0.495343387
									188:leaf=0.840637326
							90:[l11<0.385850012] yes=137,no=138,missing=137
								137:[l5<0.426200002] yes=189,no=190,missing=189
									189:[l11<-0.217050001] yes=231,no=232,missing=231
										231:leaf=-0.518361807
										232:leaf=0.589770615
									190:[l2<45.887352] yes=233,no=234,missing=233
										233:leaf=-0.649418354
										234:leaf=0.138030887
								138:[l7<1.15425003] yes=191,no=192,missing=191
									191:[l14<9.5] yes=235,no=236,missing=235
										235:leaf=0.105469346
										236:leaf=-0.855114877
									192:[l8<0.506049991] yes=237,no=238,missing=237
										237:leaf=0.482848138
										238:leaf=-0.306545883
					38:[l7<0.497799993] yes=59,no=60,missing=59
						59:leaf=0.486276537
						60:[l1<12.6777992] yes=91,no=92,missing=91
							91:[l14<7.5] yes=139,no=140,missing=139
								139:[l2<48.8709984] yes=193,no=194,missing=193
									193:leaf=-0.653723776
									194:leaf=0.117176354
								140:leaf=-1.00301194
							92:leaf=0.548213899
		4:[l0<4396.5] yes=9,no=10,missing=9
			9:[l3<1.78390002] yes=19,no=20,missing=19
				19:leaf=-1.04364836
				20:leaf=-0.115758426
			10:[l0<4604.5] yes=21,no=22,missing=21
				21:leaf=0.379532844
				22:leaf=-0.759580851
	2:[l1<11.1533499] yes=5,no=6,missing=5
		5:[l9<2.46705008] yes=11,no=12,missing=11
			11:[l8<0.199999988] yes=23,no=24,missing=23
				23:leaf=-1.07007265
				24:leaf=0.860080183
			12:[l6<-0.899399996] yes=25,no=26,missing=25
				25:leaf=-0.006145366
				26:[l7<1.49294996] yes=39,no=40,missing=39
					39:[l9<10.9906502] yes=61,no=62,missing=61
						61:leaf=1.00289822
						62:leaf=0.2220366
					40:leaf=-0.0444084778
		6:[l1<14.7523499] yes=13,no=14,missing=13
			13:[l2<59.8656502] yes=27,no=28,missing=27
				27:[l11<-0.0309499986] yes=41,no=42,missing=41
					41:[l6<-0.981850028] yes=63,no=64,missing=63
						63:[l0<3261] yes=93,no=94,missing=93
							93:[l12<2.48015022] yes=141,no=142,missing=141
								141:leaf=-1.13693261
								142:leaf=-0.210375294
							94:leaf=0.450121343
						64:[l7<0.300500005] yes=95,no=96,missing=95
							95:[l10<0.915850043] yes=143,no=144,missing=143
								143:[l5<0.467450023] yes=195,no=196,missing=195
									195:[l6<0.213950008] yes=239,no=240,missing=239
										239:leaf=1.00310421
										240:leaf=-0.0201129261
									196:[l11<-1.55634999] yes=241,no=242,missing=241
										241:leaf=0.41455403
										242:leaf=-1.19221044
								144:[l6<0.951550007] yes=197,no=198,missing=197
									197:[l6<0.932550013] yes=243,no=244,missing=243
										243:leaf=-0.0104219858
										244:leaf=-1.24736714
									198:[l2<54.4897499] yes=245,no=246,missing=245
										245:leaf=0.161344141
										246:leaf=0.944085598
							96:[l3<-0.649649978] yes=145,no=146,missing=145
								145:[l7<0.336950004] yes=199,no=200,missing=199
									199:leaf=0.235730454
									200:[l7<0.664399981] yes=247,no=248,missing=247
										247:leaf=1.21384811
										248:leaf=0.25156045
								146:[l3<-0.252750009] yes=201,no=202,missing=201
									201:[l8<0.155750006] yes=249,no=250,missing=249
										249:leaf=0.67391479
										250:leaf=-0.813638091
									202:[l4<0.561800003] yes=251,no=252,missing=251
										251:leaf=0.886477768
										252:leaf=-0.0203708541
					42:[l5<1.05999994] yes=65,no=66,missing=65
						65:[l5<0.94385004] yes=97,no=98,missing=97
							97:[l3<1.61715007] yes=147,no=148,missing=147
								147:[l3<-1.39579999] yes=203,no=204,missing=203
									203:[l8<0.265599996] yes=253,no=254,missing=253
										253:leaf=-0.117717847
										254:leaf=0.713167131
									204:[l4<0.220550001] yes=255,no=256,missing=255
										255:leaf=0.138738692
										256:leaf=-0.45909071
								148:[l7<1.13330007] yes=205,no=206,missing=205
									205:leaf=0.917965174
									206:leaf=-0.045907855
							98:[l8<0.538650036] yes=149,no=150,missing=149
								149:leaf=-1.07757366
								150:leaf=-0.246953636
						66:[l15<2.5] yes=99,no=100,missing=99
							99:leaf=0.968662322
							100:leaf=-0.0826430321
				28:[l0<1032] yes=43,no=44,missing=43
					43:[l12<3.16485023] yes=67,no=68,missing=67
						67:leaf=0.819943786
						68:leaf=-0.713668287
					44:[l1<14.6858501] yes=69,no=70,missing=69
						69:[l11<-3.29675007] yes=101,no=102,missing=101
							101:leaf=0.157052711
							102:[l12<25.8761005] yes=151,no=152,missing=151
								151:leaf=1.0831151
								152:leaf=0.245744318
						70:leaf=-0.043720305
			14:[l2<57.8723526] yes=29,no=30,missing=29
				29:[l3<-0.560949981] yes=45,no=46,missing=45
					45:[l9<4.09224987] yes=71,no=72,missing=71
						71:[l14<8.5] yes=103,no=104,missing=103
							103:leaf=0.889606535
							104:[l13<4.5] yes=153,no=154,missing=153
								153:leaf=0.243757531
								154:leaf=-0.550414085
						72:[l10<0.869650006] yes=105,no=106,missing=105
							105:leaf=0.181662753
							106:[l10<1.11175001] yes=155,no=156,missing=155
								155:leaf=-0.928496599
								156:leaf=0.093477957
					46:[l13<3.5] yes=73,no=74,missing=73
						73:[l5<0.76485002] yes=107,no=108,missing=107
							107:leaf=-0.580788851
							108:leaf=0.382711411
						74:[l6<-0.969099998] yes=109,no=110,missing=109
							109:leaf=-0.148280963
							110:leaf=-1.06784463
				30:[l2<67.1318054] yes=47,no=48,missing=47
					47:[l1<17.1874504] yes=75,no=76,missing=75
						75:[l4<0.5546] yes=111,no=112,missing=111
							111:[l0<4145] yes=157,no=158,missing=157
								157:[l5<0.6972] yes=207,no=208,missing=207
									207:[l5<0.295949996] yes=257,no=258,missing=257
										257:leaf=0.448422909
										258:leaf=-0.282329708
									208:[l2<59.4225502] yes=259,no=260,missing=259
										259:leaf=0.250090361
										260:leaf=0.998336852
								158:[l7<0.235399991] yes=209,no=210,missing=209
									209:[l0<4654.5] yes=261,no=262,missing=261
										261:leaf=-1.10100615
										262:leaf=0.181065202
									210:[l10<0.993300021] yes=263,no=264,missing=263
										263:leaf=-0.218086436
										264:leaf=0.729285538
							112:[l5<1.01559997] yes=159,no=160,missing=159
								159:[l2<64.2613525] yes=211,no=212,missing=211
									211:[l10<0.864600003] yes=265,no=266,missing=265
										265:leaf=0.624459684
										266:leaf=-0.554656386
									212:[l5<-0.711500049] yes=267,no=268,missing=267
										267:leaf=0.0104442798
										268:leaf=0.792382717
								160:leaf=0.796586275
						76:[l14<7.5] yes=113,no=114,missing=113
							113:[l8<0.477750003] yes=161,no=162,missing=161
								161:leaf=-0.0596290976
								162:leaf=0.567807376
							114:[l0<529] yes=163,no=164,missing=163
								163:leaf=0.284261853
								164:[l6<1.03429997] yes=213,no=214,missing=213
									213:[l14<13.5] yes=269,no=270,missing=269
										269:leaf=-1.0551331
										270:leaf=0.123504072
									214:leaf=0.232092008
					48:[l9<9.42885017] yes=77,no=78,missing=77
						77:[l12<14.3218498] yes=115,no=116,missing=115
							115:[l6<-0.889299989] yes=165,no=166,missing=165
								165:leaf=0.226193264
								166:leaf=1.00182402
							116:leaf=-0.0268532634
						78:leaf=-0.160647228
booster[4]:
0:[l4<1.47070003] yes=1,no=2,missing=1
	1:[l2<60.9823532] yes=3,no=4,missing=3
		3:[l1<13.8278503] yes=7,no=8,missing=7
			7:[l2<52.5526505] yes=15,no=16,missing=15
				15:[l1<7.8614502] yes=31,no=32,missing=31
					31:[l2<38.6721001] yes=53,no=54,missing=53
						53:[l1<6.86530018] yes=77,no=78,missing=77
							77:[l2<34.8584518] yes=111,no=112,missing=111
								111:leaf=-0.417197704
								112:leaf=0.436104417
							78:leaf=-0.677240431
						54:[l6<0.688699961] yes=79,no=80,missing=79
							79:[l10<0.972049952] yes=113,no=114,missing=113
								113:leaf=1.01945436
								114:[l6<-0.301150024] yes=157,no=158,missing=157
									157:[l2<41.8993492] yes=209,no=210,missing=209
										209:leaf=-0.591448188
										210:leaf=0.252664179
									158:leaf=0.804021895
							80:[l10<1.01769996] yes=115,no=116,missing=115
								115:[l5<-0.0293999985] yes=159,no=160,missing=159
									159:leaf=-0.201824471
									160:leaf=-1.26633286
								116:[l5<-0.315499991] yes=161,no=162,missing=161
									161:leaf=-0.162131995
									162:leaf=0.845091462
					32:[l2<43.4984512] yes=55,no=56,missing=55
						55:[l11<-1.07695007] yes=81,no=82,missing=81
							81:[l2<42.2826004] yes=117,no=118,missing=117
								117:[l1<8.30770016] yes=163,no=164,missing=163
									163:leaf=-0.0549139194
									164:leaf=-0.678412437
								118:[l15<1.5] yes=165,no=166,missing=165
									165:leaf=-0.128028795
									166:leaf=0.730827093
							82:[l0<3717.5] yes=119,no=120,missing=119
								119:[l13<8.5] yes=167,no=168,missing=167
									167:leaf=-1.05650282
									168:leaf=-0.218532696
								120:[l5<-0.375150025] yes=169,no=170,missing=169
									169:leaf=0.380039424
									170:leaf=-0.733521879
						56:[l14<4.5] yes=83,no=84,missing=83
							83:[l11<-0.129199997] yes=121,no=122,missing=121
								121:leaf=1.00953138
								122:leaf=-0.0446326248
							84:[l4<0.539499998] yes=123,no=124,missing=123
								123:[l3<-1.21259999] yes=171,no=172,missing=171
									171:[l5<0.745999992] yes=211,no=212,missing=211
										211:leaf=0.668047965
										212:leaf=-0.0881102458
									172:[l5<1.02390003] yes=213,no=214,missing=213
										213:leaf=-0.165109217
										214:leaf=0.740285277
								124:[l6<-0.253750026] yes=173,no=174,missing=173
									173:[l3<0.222599998] yes=215,no=216,missing=215
										215:leaf=-0.292476326
										216:leaf=0.449472964
									174:[l6<1.04785001] yes=217,no=218,missing=217
										217:leaf=-0.63962549
										218:leaf=0.415190607
				16:[l13<2.5] yes=33,no=34,missing=33
					33:[l3<-1.37170005] yes=57,no=58,missing=57
						57:leaf=0.00350704952
						58:[l15<2.5] yes=85,no=86,missing=85
							85:leaf=1.18999004
							86:[l8<0.190899998] yes=125,no=126,missing=125
								125:leaf=-0.140013233
								126:leaf=0.638650477
					34:[l3<-1.10334992] yes=59,no=60,missing=59
						59:[l7<0.053199999] yes=87,no=88,missing=87
							87:[l11<-2.9914999] yes=127,no=128,missing=127
								127:leaf=0.498105705
								128:leaf=-0.709859788
							88:[l2<56.8326492] yes=129,no=130,missing=129
								129:[l3<-1.52744997] yes=175,no=176,missing=175
									175:leaf=1.05693352
									176:[l3<-1.41254997] yes=219,no=220,missing=219
										219:leaf=0.035537459
										220:leaf=0.744896352
								130:[l15<0.5] yes=177,no=178,missing=177
									177:leaf=-0.703410625
									178:leaf=0.693137944
						60:[l10<0.94630003] yes=89,no=90,missing=89
							89:[l6<0.191100001] yes=131,no=132,missing=131
								131:[l0<1810.5] yes=179,no=180,missing=179
									179:[l3<-0.413199991] yes=221,no=222,missing=221
										221:leaf=-0.280142784
										222:leaf=0.722971678
									180:[l10<0.866750002] yes=223,no=224,missing=223
										223:leaf=0.379859865
										224:leaf=-0.613418341
								132:[l8<0.689849973] yes=181,no=182,missing=181
									181:[l14<11.5] yes=225,no=226,missing=225
										225:leaf=-1.37362158
										226:leaf=-0.161551505
									182:[l5<-0.443399996] yes=227,no=228,missing=227
										227:leaf=0.627383649
										228:leaf=-0.512112021
							90:[l3<1.13890004] yes=133,no=134,missing=133
								133:[l4<0.52760005] yes=183,no=184,missing=183
									183:[l15<2.5] yes=229,no=230,missing=229
										229:leaf=0.69653815
										230:leaf=0.0604256988
									184:[l5<0.124499999] yes=231,no=232,missing=231
										231:leaf=-0.33730951
										232:leaf=0.475706786
								134:[l8<0.189500004] yes=185,no=186,missing=185
									185:[l7<0.239299998] yes=233,no=234,missing=233
										233:leaf=-0.114515968
										234:leaf=0.761557043
									186:[l3<1.83669996] yes=235,no=236,missing=235
										235:leaf=-0.76411742
										236:leaf=0.197122395
			8:[l2<55.2911987] yes=17,no=18,missing=17
				17:[l9<13.8656006] yes=35,no=36,missing=35
					35:[l14<12.5] yes=61,no=62,missing=61
						61:[l5<-0.966300011] yes=91,no=92,missing=91
							91:leaf=0.19510527
							92:[l10<0.811249971] yes=135,no=136,missing=135
								135:leaf=-0.0896781683
								136:[l8<0.937450051] yes=187,no=188,missing=187
									187:[l12<5.53364992] yes=237,no=238,missing=237
										237:leaf=-1.13329422
										238:leaf=-0.535638213
									188:leaf=-0.134994492
						62:[l9<4.75755024] yes=93,no=94,missing=93
							93:leaf=0.661346316
							94:[l10<0.950800002] yes=137,no=138,missing=137
								137:leaf=-0.0934246406
								138:leaf=-0.705260277
					36:leaf=0.375896722
				18:[l7<0.289550006] yes=37,no=38,missing=37
					37:[l12<5.24485016] yes=63,no=64,missing=63
						63:[l3<1.22605002] yes=95,no=96,missing=95
							95:[l3<0.188899994] yes=139,no=140,missing=139
								139:[l12<3.46175003] yes=189,no=190,missing=189
									189:[l13<3.5] yes=239,no=240,missing=239
										239:leaf=0.485067725
										240:leaf=-0.480829656
									190:[l9<4.75930023] yes=241,no=242,missing=241
										241:leaf=-0.127623528
										242:leaf=0.965915918
								140:[l12<0.436650008] yes=191,no=192,missing=191
									191:leaf=0.158656597
									192:[l10<1.09185004] yes=243,no=244,missing=243
										243:leaf=-1.4054445
										244:leaf=-0.246956095
							96:[l2<59.9509506] yes=141,no=142,missing=141
								141:[l5<-0.545050025] yes=193,no=194,missing=193
									193:leaf=0.191314369
									194:leaf=0.986696601
								142:leaf=-0.26371032
						64:[l11<-1.32340002] yes=97,no=98,missing=97
							97:[l11<-2.09879994] yes=143,no=144,missing=143
								143:[l8<0.37559998] yes=195,no=196,missing=195
									195:leaf=0.0685563907
									196:leaf=-1.05799341
								144:[l11<-1.72574997] yes=197,no=198,missing=197
									197:leaf=0.487066507
									198:leaf=-0.333940923
							98:[l1<15.03405] yes=145,no=146,missing=145
								145:leaf=-1.62837279
								146:leaf=-0.552157998
					38:[l1<16.3849983] yes=65,no=66,missing=65
						65:[l13<8.5] yes=99,no=100,missing=99
							99:[l11<1.01415002] yes=147,no=148,missing=147
								147:[l15<2.5] yes=199,no=200,missing=199
									199:[l6<0.716850042] yes=245,no=246,missing=245
										245:leaf=0.824763477
										246:leaf=-0.0221543722
									200:[l14<7.5] yes=247,no=248,missing=247
										247:leaf=0.855397224
										248:leaf=-0.376174897
								148:[l12<1.47375] yes=201,no=202,missing=201
									201:leaf=0.226482093
									202:leaf=-0.952552497
							100:[l8<0.427850008] yes=149,no=150,missing=149
								149:leaf=0.0903077275
								150:leaf=-0.858766496
						66:[l3<-0.60860002] yes=101,no=102,missing=101
							101:leaf=0.0167938508
							102:leaf=-0.858066022
		4:[l1<14.9661503] yes=9,no=10,missing=9
			9:[l5<0.975549996] yes=19,no=20,missing=19
				19:[l14<7.5] yes=39,no=40,missing=39
					39:[l4<0.397199988] yes=67,no=68,missing=67
						67:leaf=0.553284764
						68:leaf=-0.101659283
					40:leaf=0.975595832
				20:leaf=0.0905628502
			10:[l6<-0.946099997] yes=21,no=22,missing=21
				21:[l9<5.94604969] yes=41,no=42,missing=41
					41:leaf=-0.878628314
					42:leaf=0.0407882929
				22:[l8<0.68325001] yes=43,no=44,missing=43
					43:[l8<0.659600019] yes=69,no=70,missing=69
						69:[l7<0.696150005] yes=103,no=104,missing=103
							103:[l5<-0.449149996] yes=151,no=152,missing=151
								151:[l2<62.6756516] yes=203,no=204,missing=203
									203:[l4<0.654250026] yes=249,no=250,missing=249
										249:leaf=0.00169694098
										250:leaf=-0.982088745
									204:[l6<-0.0483999997] yes=251,no=252,missing=251
										251:leaf=-0.252875537
										252:leaf=0.619654417
								152:[l10<0.920350015] yes=205,no=206,missing=205
									205:[l6<-0.319849998] yes=253,no=254,missing=253
										253:leaf=0.530430496
										254:leaf=-0.698596001
									206:[l13<7.5] yes=255,no=256,missing=255
										255:leaf=0.972668946
										256:leaf=0.0724032596
							104:[l4<0.601850033] yes=153,no=154,missing=153
								153:[l2<63.4567986] yes=207,no=208,missing=207
									207:leaf=-1.29029477
									208:[l1<17.1478996] yes=257,no=258,missing=257
										257:leaf=0.499528468
										258:leaf=-0.384435415
								154:leaf=0.506752491
						70:leaf=-0.778772831
					44:[l1<19.4354] yes=71,no=72,missing=71
						71:[l4<-0.145449996] yes=105,no=106,missing=105
							105:leaf=-0.0919842497
							106:[l0<4062] yes=155,no=156,missing=155
								155:leaf=1.0264293
								156:leaf=0.15315184
						72:leaf=-0.470548928
	2:[l5<0.544049978] yes=5,no=6,missing=5
		5:[l10<0.926849961] yes=11,no=12,missing=11
			11:[l12<3.87124991] yes=23,no=24,missing=23
				23:[l8<0.297200024] yes=45,no=46,missing=45
					45:leaf=0.258624047
					46:leaf=0.95761174
				24:leaf=0.187674075
			12:[l3<1.02065003] yes=25,no=26,missing=25
				25:[l4<1.89499998] yes=47,no=48,missing=47
					47:[l11<-1.13979995] yes=73,no=74,missing=73
						73:[l16<0.5] yes=107,no=108,missing=107
							107:leaf=-0.146821424
							108:leaf=0.343570262
						74:[l11<0.0644999966] yes=109,no=110,missing=109
							109:leaf=-0.955218494
							110:leaf=0.0380443111
					48:[l12<1.51655006] yes=75,no=76,missing=75
						75:leaf=0.609387696
						76:leaf=0.075041987
				26:[l7<0.323499978] yes=49,no=50,missing=49
					49:leaf=0.0688041821
					50:leaf=0.992221713
		6:[l11<-0.0414500013] yes=13,no=14,missing=13
			13:[l2<58.0260506] yes=27,no=28,missing=27
				27:[l2<43.583847] yes=51,no=52,missing=51
					51:leaf=0.184456766
					52:leaf=1.18580294
				28:leaf=0.209164515
			14:[l10<1.01725006] yes=29,no=30,missing=29
				29:leaf=-0.171173409
				30:leaf=0.552439868
booster[5]:
0:[l16<0.5] yes=1,no=2,missing=1
	1:[l14<14.5] yes=3,no=4,missing=3
		3:[l8<0.575700045] yes=7,no=8,missing=7
			7:[l8<0.525650024] yes=15,no=16,missing=15
				15:[l12<-1.06465006] yes=29,no=30,missing=29
					29:[l1<12.8196001] yes=51,no=52,missing=51
						51:[l6<0.0739500001] yes=83,no=84,missing=83
							83:leaf=-0.525015593
							84:leaf=0.0356595553
						52:leaf=-1.00027156
					30:[l15<2.5] yes=53,no=54,missing=53
						53:[l8<0.0264999997] yes=85,no=86,missing=85
							85:[l0<2184.5] yes=125,no=126,missing=125
								125:leaf=0.114447318
								126:[l11<-1.09039998] yes=183,no=184,missing=183
									183:leaf=-0.185020134
									184:leaf=-0.92971462
							86:[l8<0.279500008] yes=127,no=128,missing=127
								127:[l8<0.217150003] yes=185,no=186,missing=185
									185:[l8<0.142749995] yes=245,no=246,missing=245
										245:leaf=0.308183998
										246:leaf=-0.424235374
									186:[l5<-0.284299999] yes=247,no=248,missing=247
										247:leaf=-0.0199044365
										248:leaf=0.947642028
								128:[l11<-1.35045004] yes=187,no=188,missing=187
									187:[l2<52.7174492] yes=249,no=250,missing=249
										249:leaf=-0.261386216
										250:leaf=0.760343432
									188:[l1<10.9759998] yes=251,no=252,missing=251
										251:leaf=0.18275784
										252:leaf=-0.589362085
						54:[l3<0.952650011] yes=87,no=88,missing=87
							87:[l14<8.5] yes=129,no=130,missing=129
								129:[l0<3055] yes=189,no=190,missing=189
									189:[l7<0.465550005] yes=253,no=254,missing=253
										253:leaf=-0.658101261
										254:leaf=0.320942312
									190:[l6<0.406049997] yes=255,no=256,missing=255
										255:leaf=0.153824314
										256:leaf=0.810976326
								130:[l3<-1.46259999] yes=191,no=192,missing=191
									191:leaf=0.35397917
									192:[l8<0.0335000008] yes=257,no=258,missing=257
										257:leaf=-0.0225785859
										258:leaf=-0.913803756
							88:[l4<-0.0637499988] yes=131,no=132,missing=131
								131:leaf=-0.533976376
								132:[l7<0.135650009] yes=193,no=194,missing=193
									193:leaf=-0.238852307
									194:[l1<13.7806997] yes=259,no=260,missing=259
										259:leaf=0.840950012
										260:leaf=0.127098367
				16:[l12<11.1073494] yes=31,no=32,missing=31
					31:[l8<0.547850013] yes=55,no=56,missing=55
						55:[l9<3.79355001] yes=89,no=90,missing=89
							89:[l1<12.0549507] yes=133,no=134,missing=133
								133:leaf=0.014627845
								134:leaf=-0.441306382
							90:[l9<7.55690002] yes=135,no=136,missing=135
								135:leaf=-1.34765327
								136:leaf=-0.273766339
						56:[l1<12.1103001] yes=91,no=92,missing=91
							91:[l2<48.6829987] yes=137,no=138,missing=137
								137:leaf=-0.433200181
								138:leaf=0.726637363
							92:[l0<1587.5] yes=139,no=140,missing=139
								139:leaf=-0.0268713683
								140:leaf=-0.752221763
					32:[l7<0.15290001] yes=57,no=58,missing=57
						57:leaf=-0.0549372807
						58:leaf=0.191397011
			8:[l8<0.622250021] yes=17,no=18,missing=17
				17:[l0<2664] yes=33,no=34,missing=33
					33:leaf=1.1617533
					34:leaf=0.141303003
				18:[l15<1.5] yes=35,no=36,missing=35
					35:[l14<7.5] yes=59,no=60,missing=59
						59:[l10<0.950999975] yes=93,no=94,missing=93
							93:[l11<-0.386200011] yes=141,no=142,missing=141
								141:leaf=0.662426054
								142:leaf=-0.377988845
							94:[l4<0.0259499997] yes=143,no=144,missing=143
								143:leaf=0.256079644
								144:leaf=1.26753879
						60:[l5<-0.334250003] yes=95,no=96,missing=95
							95:[l14<10.5] yes=145,no=146,missing=145
								145:[l7<0.133499995] yes=195,no=196,missing=195
									195:leaf=-0.0967160836
									196:[l1<13.0158005] yes=261,no=262,missing=261
										261:leaf=1.24583483
										262:leaf=0.0804931819
								146:[l8<0.783050001] yes=197,no=198,missing=197
									197:[l13<6.5] yes=263,no=264,missing=263
										263:leaf=-0.239112124
										264:leaf=-0.742097437
									198:[l0<2208.5] yes=265,no=266,missing=265
										265:leaf=0.525040329
										266:leaf=-0.12569797
							96:[l3<0.775049984] yes=147,no=148,missing=147
								147:[l4<1.15919995] yes=199,no=200,missing=199
									199:[l14<10.5] yes=267,no=268,missing=267
										267:leaf=-0.809226453
										268:leaf=-0.111713663
									200:leaf=0.431083411
								148:[l4<0.466700017] yes=201,no=202,missing=201
									201:[l10<1.03295004] yes=269,no=270,missing=269
										269:leaf=-0.520687222
										270:leaf=0.308082789
									202:[l1<11.5177498] yes=271,no=272,missing=271
										271:leaf=0.286861569
										272:leaf=0.987550497
					36:[l9<5.59924984] yes=61,no=62,missing=61
						61:[l8<0.953750014] yes=97,no=98,missing=97
							97:[l1<11.1325998] yes=149,no=150,missing=149
								149:[l2<47.7035522] yes=203,no=204,missing=203
									203:[l8<0.753700018] yes=273,no=274,missing=273
										273:leaf=-0.641948104
										274:leaf=0.204436928
									204:[l4<0.892650008] yes=275,no=276,missing=275
										275:leaf=0.691748321
										276:leaf=-0.122530721
								150:[l8<0.669700027] yes=205,no=206,missing=205
									205:[l9<3.61439991] yes=277,no=278,missing=277
										277:leaf=0.336361319
										278:leaf=-0.398557454
									206:[l2<57.2704506] yes=279,no=280,missing=279
										279:leaf=-0.972579896
										280:leaf=-0.214754909
							98:leaf=0.49248156
						62:[l10<0.922699988] yes=99,no=100,missing=99
							99:[l8<0.776199996] yes=151,no=152,missing=151
								151:leaf=0.135641202
								152:[l5<0.0119500002] yes=207,no=208,missing=207
									207:leaf=-1.07595003
									208:leaf=-0.260223776
							100:[l4<-0.17915] yes=153,no=154,missing=153
								153:leaf=-0.373967737
								154:[l4<0.907800019] yes=209,no=210,missing=209
									209:[l8<0.91474998] yes=281,no=282,missing=281
										281:leaf=0.772482812
										282:leaf=-0.253719807
									210:[l5<0.599449992] yes=283,no=284,missing=283
										283:leaf=-0.427279025
										284:leaf=0.223300129
		4:[l7<0.0221999995] yes=9,no=10,missing=9
			9:leaf=-0.531658113
			10:[l8<0.667150021] yes=19,no=20,missing=19
				19:[l2<45.4458504] yes=37,no=38,missing=37
					37:leaf=0.145081952
					38:[l9<6.00715017] yes=63,no=64,missing=63
						63:leaf=0.921520412
						64:leaf=0.205450639
				20:[l11<-1.10759997] yes=39,no=40,missing=39
					39:leaf=0.720701456
					40:[l6<0.158849999] yes=65,no=66,missing=65
						65:leaf=-0.884094
						66:leaf=-0.0617574863
	2:[l16<1.5] yes=5,no=6,missing=5
		5:[l13<7.5] yes=11,no=12,missing=11
			11:[l11<-4.1701498] yes=21,no=22,missing=21
				21:leaf=-0.284525603
				22:[l6<0.963549972] yes=41,no=42,missing=41
					41:[l5<-0.903100014] yes=67,no=68,missing=67
						67:leaf=0.171080947
						68:[l12<-0.882750034] yes=101,no=102,missing=101
							101:leaf=0.194489628
							102:[l10<0.865399957] yes=155,no=156,missing=155
								155:leaf=0.304440975
								156:[l0<2603] yes=211,no=212,missing=211
									211:[l6<-0.846750021] yes=285,no=286,missing=285
										285:leaf=0.0606417768
										286:leaf=0.78562218
									212:leaf=1.22551286
					42:[l6<1.03799999] yes=69,no=70,missing=69
						69:leaf=-0.50667429
						70:leaf=0.845152378
			12:[l2<50.1820984] yes=23,no=24,missing=23
				23:leaf=-0.475500852
				24:[l1<13.9335003] yes=43,no=44,missing=43
					43:leaf=0.603351593
					44:leaf=-0.153401464
		6:[l3<-0.650099993] yes=13,no=14,missing=13
			13:[l14<13.5] yes=25,no=26,missing=25
				25:[l1<13.4375] yes=45,no=46,missing=45
					45:[l9<4.76399994] yes=71,no=72,missing=71
						71:[l1<12.2276993] yes=103,no=104,missing=103
							103:[l14<10.5] yes=157,no=158,missing=157
								157:[l3<-1.11389995] yes=213,no=214,missing=213
									213:[l3<-1.72880006] yes=287,no=288,missing=287
										287:leaf=0.578723371
										288:leaf=-0.24168919
									214:leaf=0.855895698
								158:[l2<47.7230492] yes=215,no=216,missing=215
									215:leaf=-0.50253731
									216:leaf=0.271960407
							104:[l13<4.5] yes=159,no=160,missing=159
								159:leaf=0.00133479456
								160:leaf=-0.694200397
						72:[l2<46.1034508] yes=105,no=106,missing=105
							105:[l12<3.51415014] yes=161,no=162,missing=161
								161:leaf=0.422111452
								162:leaf=-0.510468781
							106:[l0<2794] yes=163,no=164,missing=163
								163:[l8<0.0781500041] yes=217,no=218,missing=217
									217:leaf=0.150225475
									218:leaf=1.13980246
								164:[l2<51.3804474] yes=219,no=220,missing=219
									219:leaf=-0.216968164
									220:[l3<-0.929399967] yes=289,no=290,missing=289
										289:leaf=0.780643165
										290:leaf=0.136418745
					46:[l0<2452.5] yes=73,no=74,missing=73
						73:[l10<1.1003499] yes=107,no=108,missing=107
							107:[l3<-1.62314999] yes=165,no=166,missing=165
								165:leaf=-0.0775165707
								166:[l3<-0.951900005] yes=221,no=222,missing=221
									221:leaf=-0.962544918
									222:leaf=-0.132568821
							108:leaf=0.381514758
						74:[l2<53.8344002] yes=109,no=110,missing=109
							109:leaf=-0.424324006
							110:[l9<6.28709984] yes=167,no=168,missing=167
								167:leaf=0.836607873
								168:[l0<3901.5] yes=223,no=224,missing=223
									223:leaf=0.407793432
									224:leaf=-0.483650506
				26:leaf=0.977766752
			14:[l3<0.38894999] yes=27,no=28,missing=27
				27:[l8<0.904500008] yes=47,no=48,missing=47
					47:[l1<9.38055038] yes=75,no=76,missing=75
						75:[l6<-0.694849968] yes=111,no=112,missing=111
							111:leaf=-0.304118574
							112:[l3<0.0791499987] yes=169,no=170,missing=169
								169:[l12<0.688199997] yes=225,no=226,missing=225
									225:leaf=0.0054725525
									226:leaf=0.794587255
								170:leaf=-0.078313522
						76:[l14<8.5] yes=113,no=114,missing=113
							113:[l9<2.07655001] yes=171,no=172,missing=171
								171:[l9<1.65044999] yes=227,no=228,missing=227
									227:leaf=0.131892234
									228:leaf=0.860073209
								172:[l10<0.873199999] yes=229,no=230,missing=229
									229:leaf=0.38665691
									230:[l7<0.0489000008] yes=291,no=292,missing=291
										291:leaf=0.377124667
										292:leaf=-0.47996518
							114:[l10<0.806850016] yes=173,no=174,missing=173
								173:leaf=0.369627237
								174:[l14<11.5] yes=231,no=232,missing=231
									231:[l12<0.278400004] yes=293,no=294,missing=293
										293:leaf=-0.0847014859
										294:leaf=-0.901710331
									232:[l5<0.643000007] yes=295,no=296,missing=295
										295:leaf=-0.416046381
										296:leaf=0.286614954
					48:[l2<49.4762497] yes=77,no=78,missing=77
						77:leaf=-0.208397731
						78:[l15<2.5] yes=115,no=116,missing=115
							115:leaf=1.00340402
							116:leaf=0.0200602598
				28:[l6<-0.875499964] yes=49,no=50,missing=49
					49:[l14<8.5] yes=79,no=80,missing=79
						79:[l5<0.0170000009] yes=117,no=118,missing=117
							117:leaf=-0.341011941
							118:leaf=0.642894745
						80:[l14<11.5] yes=119,no=120,missing=119
							119:leaf=-0.883661807
							120:leaf=-0.0658163503
					50:[l15<1.5] yes=81,no=82,missing=81
						81:[l8<0.146600008] yes=121,no=122,missing=121
							121:[l5<0.0793000013] yes=175,no=176,missing=175
								175:leaf=1.0085268
								176:leaf=-0.0387561657
							122:[l0<354] yes=177,no=178,missing=177
								177:[l1<12.7832499] yes=233,no=234,missing=233
									233:leaf=0.824763596
									234:leaf=-0.101199001
								178:[l0<1046.5] yes=235,no=236,missing=235
									235:[l6<0.818449974] yes=297,no=298,missing=297
										297:leaf=-1.4086504
										298:leaf=-0.218599096
									236:[l16<2.5] yes=299,no=300,missing=299
										299:leaf=0.176067621
										300:leaf=-0.599857271
						82:[l5<-0.824000001] yes=123,no=124,missing=123
							123:[l4<0.531700015] yes=179,no=180,missing=179
								179:[l8<0.526000023] yes=237,no=238,missing=237
									237:leaf=-0.394063145
									238:leaf=0.821516871
								180:[l13<4.5] yes=239,no=240,missing=239
									239:leaf=-0.171601459
									240:leaf=-0.790502369
							124:[l5<-0.468699992] yes=181,no=182,missing=181
								181:[l11<-0.284399986] yes=241,no=242,missing=241
									241:[l7<0.0860000029] yes=301,no=302,missing=301
										301:leaf=0.318410397
										302:leaf=1.13982964
									242:[l9<6.08890009] yes=303,no=304,missing=303
										303:leaf=0.00395291299
										304:leaf=0.525414228
								182:[l15<2.5] yes=243,no=244,missing=243
									243:[l4<0.0237499997] yes=305,no=306,missing=305
										305:leaf=-0.0238072332
										306:leaf=0.682154655
									244:[l14<11.5] yes=307,no=308,missing=307
										307:leaf=-0.239151165
										308:leaf=0.707798481
booster[6]:
0:[l2<47.4301987] yes=1,no=2,missing=1
	1:[l1<11.052] yes=3,no=4,missing=3
		3:[l6<-1.02114999] yes=7,no=8,missing=7
			7:leaf=-0.72628355
			8:[l13<6.5] yes=15,no=16,missing=15
				15:[l8<0.507099986] yes=27,no=28,missing=27
					27:[l9<8.59695053] yes=51,no=52,missing=51
						51:[l12<2.86704993] yes=89,no=90,missing=89
							89:[l10<1.04489994] yes=141,no=142,missing=141
								141:[l14<11.5] yes=201,no=202,missing=201
									201:[l5<0.156149998] yes=267,no=268,missing=267
										267:leaf=-0.372842193
										268:leaf=-1.15631366
									202:leaf=0.0216905661
								142:[l12<1.76409996] yes=203,no=204,missing=203
									203:[l3<-0.618800044] yes=269,no=270,missing=269
										269:leaf=-0.0933745727
										270:leaf=0.534281671
									204:leaf=-0.540035725
							90:[l2<44.1598511] yes=143,no=144,missing=143
								143:[l5<-0.114150003] yes=205,no=206,missing=205
									205:[l11<-0.662799954] yes=271,no=272,missing=271
										271:leaf=0.41021046
										272:leaf=-0.369705588
									206:leaf=-0.602067411
								144:[l12<7.78579998] yes=207,no=208,missing=207
									207:leaf=0.983611107
									208:[l1<9.67080021] yes=273,no=274,missing=273
										273:leaf=0.456845075
										274:leaf=-0.569314599
						52:[l11<-0.690050006] yes=91,no=92,missing=91
							91:leaf=0.964091778
							92:leaf=0.0846933797
					28:[l2<42.8900528] yes=53,no=54,missing=53
						53:[l1<7.73044968] yes=93,no=94,missing=93
							93:[l12<2.12545013] yes=145,no=146,missing=145
								145:leaf=-0.13527441
								146:leaf=0.582149446
							94:[l4<0.783849955] yes=147,no=148,missing=147
								147:leaf=-0.688593626
								148:leaf=-0.122738764
						54:[l0<542] yes=95,no=96,missing=95
							95:leaf=-0.222183958
							96:[l3<1.44410002] yes=149,no=150,missing=149
								149:[l15<1.5] yes=209,no=210,missing=209
									209:[l2<46.3955002] yes=275,no=276,missing=275
										275:leaf=0.00410228688
										276:leaf=0.525257707
									210:[l10<1.1161499] yes=277,no=278,missing=277
										277:leaf=1.00702667
										278:leaf=0.11681661
								150:leaf=-0.153704271
				16:[l9<4.90894985] yes=29,no=30,missing=29
					29:[l11<-2.05684996] yes=55,no=56,missing=55
						55:[l2<44.9191513] yes=97,no=98,missing=97
							97:leaf=0.0593095347
							98:leaf=1.27254951
						56:[l10<1.12164998] yes=99,no=100,missing=99
							99:[l3<0.316699982] yes=151,no=152,missing=151
								151:[l3<-1.35955] yes=211,no=212,missing=211
									211:leaf=0.274314195
									212:leaf=-0.920418262
								152:[l3<0.75545001] yes=213,no=214,missing=213
									213:leaf=0.578351617
									214:leaf=-0.242350414
							100:[l1<8.66114998] yes=153,no=154,missing=153
								153:leaf=0.667595506
								154:leaf=0.0246522166
					30:[l1<8.18330002] yes=57,no=58,missing=57
						57:[l2<42.1895485] yes=101,no=102,missing=101
							101:leaf=-0.43871057
							102:leaf=0.547685385
						58:[l14<11.5] yes=103,no=104,missing=103
							103:leaf=-0.920017183
							104:leaf=-0.212436572
		4:[l3<1.60415006] yes=9,no=10,missing=9
			9:[l4<0.0291499998] yes=17,no=18,missing=17
				17:[l4<-0.0824500024] yes=31,no=32,missing=31
					31:leaf=-0.616257727
					32:leaf=0.425957799
				18:[l10<0.837100029] yes=33,no=34,missing=33
					33:leaf=-0.128240466
					34:leaf=-0.983432889
			10:leaf=-0.0147898365
	2:[l1<12.5668507] yes=5,no=6,missing=5
		5:[l10<1.08885002] yes=11,no=12,missing=11
			11:[l8<0.86589998] yes=19,no=20,missing=19
				19:[l6<0.718500018] yes=35,no=36,missing=35
					35:[l8<0.204099998] yes=59,no=60,missing=59
						59:[l4<0.790099978] yes=105,no=106,missing=105
							105:[l2<53.915451] yes=155,no=156,missing=155
								155:[l3<1.69915009] yes=215,no=216,missing=215
									215:[l1<10.0514002] yes=279,no=280,missing=279
										279:leaf=0.0772410184
										280:leaf=-0.808011711
									216:leaf=0.22487554
								156:[l1<11.8139496] yes=217,no=218,missing=217
									217:leaf=0.715820611
									218:[l6<-0.0599999987] yes=281,no=282,missing=281
										281:leaf=0.212032869
										282:leaf=-0.520234227
							106:[l12<7.43684959] yes=157,no=158,missing=157
								157:[l8<0.151299998] yes=219,no=220,missing=219
									219:[l6<-0.600299954] yes=283,no=284,missing=283
										283:leaf=0.168944657
										284:leaf=1.1104902
									220:leaf=0.190369129
								158:leaf=-0.033457689
						60:[l4<0.719099998] yes=107,no=108,missing=107
							107:[l9<9.35134983] yes=159,no=160,missing=159
								159:[l3<-0.930899978] yes=221,no=222,missing=221
									221:[l4<0.353850007] yes=285,no=286,missing=285
										285:leaf=-0.204390064
										286:leaf=0.594059169
									222:[l2<47.7007523] yes=287,no=288,missing=287
										287:leaf=-0.0824983343
										288:leaf=0.822519004
								160:[l16<0.5] yes=223,no=224,missing=223
									223:leaf=-0.828808248
									224:leaf=0.624213874
							108:[l11<-1.27220011] yes=161,no=162,missing=161
								161:[l15<1.5] yes=225,no=226,missing=225
									225:leaf=-0.856168926
									226:leaf=-0.0797081292
								162:[l4<0.92474997] yes=227,no=228,missing=227
									227:[l12<4.44820023] yes=289,no=290,missing=289
										289:leaf=0.198206693
										290:leaf=-0.618558347
									228:[l8<0.761649966] yes=291,no=292,missing=291
										291:leaf=0.635111928
										292:leaf=-0.190170571
					36:[l13<3.5] yes=61,no=62,missing=61
						61:[l7<0.117449999] yes=109,no=110,missing=109
							109:leaf=-0.075390853
							110:[l3<-0.341749996] yes=163,no=164,missing=163
								163:leaf=0.87853539
								164:leaf=0.159471363
						62:[l0<841] yes=111,no=112,missing=111
							111:[l3<-0.329899997] yes=165,no=166,missing=165
								165:leaf=-0.0600199066
								166:leaf=0.699799299
							112:[l9<7.57345009] yes=167,no=168,missing=167
								167:[l9<4.23005009] yes=229,no=230,missing=229
									229:[l8<0.350250006] yes=293,no=294,missing=293
										293:leaf=-0.481269717
										294:leaf=0.366912663
									230:[l6<0.881500006] yes=295,no=296,missing=295
										295:leaf=-0.32243365
										296:leaf=-1.25456965
								168:[l0<3326.5] yes=231,no=232,missing=231
									231:leaf=-0.274165809
									232:leaf=0.634101152
				20:[l7<0.159950003] yes=37,no=38,missing=37
					37:[l6<0.277500004] yes=63,no=64,missing=63
						63:[l6<-0.830600023] yes=113,no=114,missing=113
							113:leaf=-0.743533313
							114:leaf=0.209302261
						64:leaf=-1.05391371
					38:[l4<0.22240001] yes=65,no=66,missing=65
						65:[l12<5.71570015] yes=115,no=116,missing=115
							115:leaf=0.776280582
							116:leaf=-0.0477168709
						66:[l5<0.521399975] yes=117,no=118,missing=117
							117:[l12<0.618749976] yes=169,no=170,missing=169
								169:leaf=-0.455294698
								170:[l11<-0.304549992] yes=233,no=234,missing=233
									233:leaf=0.550183117
									234:leaf=-0.0822401941
							118:leaf=-0.860503495
			12:[l6<-0.491900027] yes=21,no=22,missing=21
				21:[l3<-0.507249951] yes=39,no=40,missing=39
					39:leaf=0.400932401
					40:[l3<0.604349971] yes=67,no=68,missing=67
						67:leaf=-0.892211676
						68:leaf=-0.0849614143
				22:[l4<0.608350039] yes=41,no=42,missing=41
					41:[l12<24.7084503] yes=69,no=70,missing=69
						69:[l5<-1.00484991] yes=119,no=120,missing=119
							119:leaf=-0.00379854091
							120:[l5<1.13] yes=171,no=172,missing=171
								171:[l3<1.22169995] yes=235,no=236,missing=235
									235:leaf=1.27953637
									236:leaf=0.43968001
								172:leaf=0.233978495
						70:leaf=-0.20888111
					42:[l13<2.5] yes=71,no=72,missing=71
						71:leaf=-0.572269142
						72:[l4<0.69325] yes=121,no=122,missing=121
							121:leaf=-0.215820581
							122:[l7<0.707450032] yes=173,no=174,missing=173
								173:[l12<8.6342001] yes=237,no=238,missing=237
									237:[l3<-1.11030006] yes=297,no=298,missing=297
										297:leaf=0.168070704
										298:leaf=0.878259599
									238:leaf=0.096738264
								174:leaf=0.0770788714
		6:[l2<56.3472519] yes=13,no=14,missing=13
			13:[l6<-0.353100002] yes=23,no=24,missing=23
				23:[l13<5.5] yes=43,no=44,missing=43
					43:[l5<-0.750849962] yes=73,no=74,missing=73
						73:leaf=-0.521605313
						74:[l1<13.5517502] yes=123,no=124,missing=123
							123:[l6<-0.888200045] yes=175,no=176,missing=175
								175:[l15<1.5] yes=239,no=240,missing=239
									239:leaf=-0.236988157
									240:leaf=0.205838397
								176:[l0<1581] yes=241,no=242,missing=241
									241:leaf=0.14083454
									242:[l3<0.333350003] yes=299,no=300,missing=299
										299:leaf=1.20857275
										300:leaf=0.337551117
							124:[l9<6.81699991] yes=177,no=178,missing=177
								177:[l10<0.967450023] yes=243,no=244,missing=243
									243:[l8<0.65684998] yes=301,no=302,missing=301
										301:leaf=0.217595533
										302:leaf=0.844388723
									244:leaf=-0.302934855
								178:leaf=-0.530855656
					44:[l10<0.903499961] yes=75,no=76,missing=75
						75:[l13<7.5] yes=125,no=126,missing=125
							125:[l3<0.0299499985] yes=179,no=180,missing=179
								179:leaf=0.232129917
								180:leaf=-0.610824168
							126:leaf=0.573891521
						76:[l0<1723] yes=127,no=128,missing=127
							127:[l6<-0.736299992] yes=181,no=182,missing=181
								181:[l8<0.32464999] yes=245,no=246,missing=245
									245:leaf=0.123543419
									246:leaf=-0.728807867
								182:leaf=0.575404346
							128:[l3<-1.24550009] yes=183,no=184,missing=183
								183:leaf=-0.130308345
								184:leaf=-0.934292555
				24:[l7<0.142450005] yes=45,no=46,missing=45
					45:[l10<1.1552] yes=77,no=78,missing=77
						77:[l8<0.791499972] yes=129,no=130,missing=129
							129:[l9<2.31710005] yes=185,no=186,missing=185
								185:leaf=-0.165666014
								186:leaf=-0.977085054
							130:leaf=-0.20600836
						78:leaf=0.0149667729
					46:[l10<1.00364995] yes=79,no=80,missing=79
						79:[l6<0.218999997] yes=131,no=132,missing=131
							131:[l10<0.890749991] yes=187,no=188,missing=187
								187:[l14<10.5] yes=247,no=248,missing=247
									247:leaf=-0.0775986314
									248:leaf=0.693789959
								188:[l8<0.690199971] yes=249,no=250,missing=249
									249:leaf=-0.663152099
									250:leaf=-0.0824907646
							132:[l3<1.5869] yes=189,no=190,missing=189
								189:[l3<-0.734950006] yes=251,no=252,missing=251
									251:leaf=-0.306105286
									252:leaf=-0.963214636
								190:leaf=-0.0523105711
						80:[l10<1.00705004] yes=133,no=134,missing=133
							133:leaf=0.912003934
							134:[l6<0.885500014] yes=191,no=192,missing=191
								191:[l8<0.773249984] yes=253,no=254,missing=253
									253:[l4<0.951900005] yes=303,no=304,missing=303
										303:leaf=-0.827675521
										304:leaf=0.198512614
									254:[l10<1.03795004] yes=305,no=306,missing=305
										305:leaf=0.605041742
										306:leaf=-0.0188461486
								192:[l8<0.648699999] yes=255,no=256,missing=255
									255:[l12<6.85615015] yes=307,no=308,missing=307
										307:leaf=0.187045485
